|--- 職種関係_建設関係 <= 0.500
|   |--- 組合_日中ネットワークサービス協同組合 <= 0.500
|   |   |--- 学校所属_ヤンゴン学校 <= 0.500
|   |   |   |--- 所在地(実習先)(市区町村)_佐波郡玉村町 <= 0.500
|   |   |   |   |--- 組合_フォーグッド協同組合 <= 0.500
|   |   |   |   |   |--- 所在地(実習先)(都道府県)_大分県 <= 0.500
|   |   |   |   |   |   |--- 所属機関_HIGH WIN INTERNATIONAL CO.,LTD <= 0.500
|   |   |   |   |   |   |   |--- 学校所属_MK日本語学校 <= 0.500
|   |   |   |   |   |   |   |   |--- class: 0
|   |   |   |   |   |   |   |--- 学校所属_MK日本語学校 >  0.500
|   |   |   |   |   |   |   |   |--- 所在地(実習先)(市区町村)_石巻市 <= 0.500
|   |   |   |   |   |   |   |   |   |--- class: 0
|   |   |   |   |   |   |   |   |--- 所在地(実習先)(市区町村)_石巻市 >  0.500
|   |   |   |   |   |   |   |   |   |--- 入国時年齢 <= 22.500
|   |   |   |   |   |   |   |   |   |   |--- class: 1
|   |   |   |   |   |   |   |   |   |--- 入国時年齢 >  22.500
|   |   |   |   |   |   |   |   |   |   |--- 性別_男 <= 0.500
|   |   |   |   |   |   |   |   |   |   |   |--- class: 0
|   |   |   |   |   |   |   |   |   |   |--- 性別_男 >  0.500
|   |   |   |   |   |   |   |   |   |   |   |--- class: 0
|   |   |   |   |   |   |--- 所属機関_HIGH WIN INTERNATIONAL CO.,LTD >  0.500
|   |   |   |   |   |   |   |--- 入国時年齢 <= 24.500
|   |   |   |   |   |   |   |   |--- class: 0
|   |   |   |   |   |   |   |--- 入国時年齢 >  24.500
|   |   |   |   |   |   |   |   |--- 所在地(実習先)(市区町村)_塩竈市 <= 0.500
|   |   |   |   |   |   |   |   |   |--- class: 0
|   |   |   |   |   |   |   |   |--- 所在地(実習先)(市区町村)_塩竈市 >  0.500
|   |   |   |   |   |   |   |   |   |--- 入国時年齢 <= 26.500
|   |   |   |   |   |   |   |   |   |   |--- class: 1
|   |   |   |   |   |   |   |   |   |--- 入国時年齢 >  26.500
|   |   |   |   |   |   |   |   |   |   |--- class: 0
|   |   |   |   |   |--- 所在地(実習先)(都道府県)_大分県 >  0.500
|   |   |   |   |   |   |--- class: 1
|   |   |   |   |--- 組合_フォーグッド協同組合 >  0.500
|   |   |   |   |   |--- 入国時年齢 <= 23.000
|   |   |   |   |   |   |--- class: 0
|   |   |   |   |   |--- 入国時年齢 >  23.000
|   |   |   |   |   |   |--- 入国時年齢 <= 26.000
|   |   |   |   |   |   |   |--- 所在地(実習先)(都道府県)_大阪府 <= 0.500
|   |   |   |   |   |   |   |   |--- class: 1
|   |   |   |   |   |   |   |--- 所在地(実習先)(都道府県)_大阪府 >  0.500
|   |   |   |   |   |   |   |   |--- 学校所属_ネピドー学校 <= 0.500
|   |   |   |   |   |   |   |   |   |--- class: 1
|   |   |   |   |   |   |   |   |--- 学校所属_ネピドー学校 >  0.500
|   |   |   |   |   |   |   |   |   |--- class: 0
|   |   |   |   |   |   |--- 入国時年齢 >  26.000
|   |   |   |   |   |   |   |--- class: 0
|   |   |   |--- 所在地(実習先)(市区町村)_佐波郡玉村町 >  0.500
|   |   |   |   |--- 派遣会社_MYANMAR UNITED SK CO.,LTD <= 0.500
|   |   |   |   |   |--- 入国時年齢 <= 21.500
|   |   |   |   |   |   |--- class: 1
|   |   |   |   |   |--- 入国時年齢 >  21.500
|   |   |   |   |   |   |--- 入国時年齢 <= 23.500
|   |   |   |   |   |   |   |--- class: 0
|   |   |   |   |   |   |--- 入国時年齢 >  23.500
|   |   |   |   |   |   |   |--- class: 1
|   |   |   |   |--- 派遣会社_MYANMAR UNITED SK CO.,LTD >  0.500
|   |   |   |   |   |--- class: 0
|   |   |--- 学校所属_ヤンゴン学校 >  0.500
|   |   |   |--- 派遣会社_M.H.E CO.,LTD <= 0.500
|   |   |   |   |--- 職種_そう菜製造業 <= 0.500
|   |   |   |   |   |--- 職種関係_機械・金属関係 <= 0.500
|   |   |   |   |   |   |--- 入国時年齢 <= 21.500
|   |   |   |   |   |   |   |--- 入国時年齢 <= 19.500
|   |   |   |   |   |   |   |   |--- 性別_女 <= 0.500
|   |   |   |   |   |   |   |   |   |--- class: 0
|   |   |   |   |   |   |   |   |--- 性別_女 >  0.500
|   |   |   |   |   |   |   |   |   |--- 所在地(実習先)(市区町村)_石巻市 <= 0.500
|   |   |   |   |   |   |   |   |   |   |--- 職種関係_その他 <= 0.500
|   |   |   |   |   |   |   |   |   |   |   |--- 職種関係_農業・林業関係 <= 0.500
|   |   |   |   |   |   |   |   |   |   |   |   |--- 職種_加熱性水産加工食品製造業 <= 0.500
|   |   |   |   |   |   |   |   |   |   |   |   |   |--- 入国時年齢 <= 18.500
|   |   |   |   |   |   |   |   |   |   |   |   |   |   |--- class: 0
|   |   |   |   |   |   |   |   |   |   |   |   |   |--- 入国時年齢 >  18.500
|   |   |   |   |   |   |   |   |   |   |   |   |   |   |--- 所在地(実習先)(市区町村)_一関市 <= 0.500
|   |   |   |   |   |   |   |   |   |   |   |   |   |   |   |--- 所在地(実習先)(都道府県)_岡山県 <= 0.500
|   |   |   |   |   |   |   |   |   |   |   |   |   |   |   |   |--- class: 1
|   |   |   |   |   |   |   |   |   |   |   |   |   |   |   |--- 所在地(実習先)(都道府県)_岡山県 >  0.500
|   |   |   |   |   |   |   |   |   |   |   |   |   |   |   |   |--- class: 1
|   |   |   |   |   |   |   |   |   |   |   |   |   |   |--- 所在地(実習先)(市区町村)_一関市 >  0.500
|   |   |   |   |   |   |   |   |   |   |   |   |   |   |   |--- class: 0
|   |   |   |   |   |   |   |   |   |   |   |   |--- 職種_加熱性水産加工食品製造業 >  0.500
|   |   |   |   |   |   |   |   |   |   |   |   |   |--- 派遣会社_MYANMAR UNITED SK CO.,LTD <= 0.500
|   |   |   |   |   |   |   |   |   |   |   |   |   |   |--- class: 0
|   |   |   |   |   |   |   |   |   |   |   |   |   |--- 派遣会社_MYANMAR UNITED SK CO.,LTD >  0.500
|   |   |   |   |   |   |   |   |   |   |   |   |   |   |--- class: 0
|   |   |   |   |   |   |   |   |   |   |   |--- 職種関係_農業・林業関係 >  0.500
|   |   |   |   |   |   |   |   |   |   |   |   |--- 所在地(実習先)(市区町村)_遠賀郡 <= 0.500
|   |   |   |   |   |   |   |   |   |   |   |   |   |--- class: 0
|   |   |   |   |   |   |   |   |   |   |   |   |--- 所在地(実習先)(市区町村)_遠賀郡 >  0.500
|   |   |   |   |   |   |   |   |   |   |   |   |   |--- class: 0
|   |   |   |   |   |   |   |   |   |   |--- 職種関係_その他 >  0.500
|   |   |   |   |   |   |   |   |   |   |   |--- 派遣会社_SUT ZAI CO.,LTD <= 0.500
|   |   |   |   |   |   |   |   |   |   |   |   |--- class: 0
|   |   |   |   |   |   |   |   |   |   |   |--- 派遣会社_SUT ZAI CO.,LTD >  0.500
|   |   |   |   |   |   |   |   |   |   |   |   |--- class: 0
|   |   |   |   |   |   |   |   |   |--- 所在地(実習先)(市区町村)_石巻市 >  0.500
|   |   |   |   |   |   |   |   |   |   |--- 職種_非加熱性水産加工食品製造業 <= 0.500
|   |   |   |   |   |   |   |   |   |   |   |--- class: 0
|   |   |   |   |   |   |   |   |   |   |--- 職種_非加熱性水産加工食品製造業 >  0.500
|   |   |   |   |   |   |   |   |   |   |   |--- class: 0
|   |   |   |   |   |   |   |--- 入国時年齢 >  19.500
|   |   |   |   |   |   |   |   |--- 所在地(実習先)(都道府県)_茨城県 <= 0.500
|   |   |   |   |   |   |   |   |   |--- class: 0
|   |   |   |   |   |   |   |   |--- 所在地(実習先)(都道府県)_茨城県 >  0.500
|   |   |   |   |   |   |   |   |   |--- class: 1
|   |   |   |   |   |   |--- 入国時年齢 >  21.500
|   |   |   |   |   |   |   |--- 職種_水産練り製品製造 <= 0.500
|   |   |   |   |   |   |   |   |--- 性別_女 <= 0.500
|   |   |   |   |   |   |   |   |   |--- 所在地(実習先)(都道府県)_埼玉県 <= 0.500
|   |   |   |   |   |   |   |   |   |   |--- 組合_西日本海外業務支援協同組合 <= 0.500
|   |   |   |   |   |   |   |   |   |   |   |--- 所在地(実習先)(市区町村)_生駒市 <= 0.500
|   |   |   |   |   |   |   |   |   |   |   |   |--- 組合_健康生活事業協同組合 <= 0.500
|   |   |   |   |   |   |   |   |   |   |   |   |   |--- 職種_林業 <= 0.500
|   |   |   |   |   |   |   |   |   |   |   |   |   |   |--- 所在地(実習先)(都道府県)_千葉県 <= 0.500
|   |   |   |   |   |   |   |   |   |   |   |   |   |   |   |--- 入国時年齢 <= 27.500
|   |   |   |   |   |   |   |   |   |   |   |   |   |   |   |   |--- 職種_プラスチック成形 <= 0.500
|   |   |   |   |   |   |   |   |   |   |   |   |   |   |   |   |   |--- 職種関係_食品製造関係 <= 0.500
|   |   |   |   |   |   |   |   |   |   |   |   |   |   |   |   |   |   |--- 所在地(実習先)(市区町村)_八尾市 <= 0.500
|   |   |   |   |   |   |   |   |   |   |   |   |   |   |   |   |   |   |   |--- 所在地(実習先)(都道府県)_青森県 <= 0.500
|   |   |   |   |   |   |   |   |   |   |   |   |   |   |   |   |   |   |   |   |--- 所在地(実習先)(市区町村)_由布市 <= 0.500
|   |   |   |   |   |   |   |   |   |   |   |   |   |   |   |   |   |   |   |   |   |--- 入国時年齢 <= 22.500
|   |   |   |   |   |   |   |   |   |   |   |   |   |   |   |   |   |   |   |   |   |   |--- class: 1
|   |   |   |   |   |   |   |   |   |   |   |   |   |   |   |   |   |   |   |   |   |--- 入国時年齢 >  22.500
|   |   |   |   |   |   |   |   |   |   |   |   |   |   |   |   |   |   |   |   |   |   |--- 入国時年齢 <= 23.500
|   |   |   |   |   |   |   |   |   |   |   |   |   |   |   |   |   |   |   |   |   |   |   |--- class: 0
|   |   |   |   |   |   |   |   |   |   |   |   |   |   |   |   |   |   |   |   |   |   |--- 入国時年齢 >  23.500
|   |   |   |   |   |   |   |   |   |   |   |   |   |   |   |   |   |   |   |   |   |   |   |--- 組合_JOP協同組合 <= 0.500
|   |   |   |   |   |   |   |   |   |   |   |   |   |   |   |   |   |   |   |   |   |   |   |   |--- class: 1
|   |   |   |   |   |   |   |   |   |   |   |   |   |   |   |   |   |   |   |   |   |   |   |--- 組合_JOP協同組合 >  0.500
|   |   |   |   |   |   |   |   |   |   |   |   |   |   |   |   |   |   |   |   |   |   |   |   |--- 入国時年齢 <= 24.500
|   |   |   |   |   |   |   |   |   |   |   |   |   |   |   |   |   |   |   |   |   |   |   |   |   |--- class: 1
|   |   |   |   |   |   |   |   |   |   |   |   |   |   |   |   |   |   |   |   |   |   |   |   |--- 入国時年齢 >  24.500
|   |   |   |   |   |   |   |   |   |   |   |   |   |   |   |   |   |   |   |   |   |   |   |   |   |--- class: 0
|   |   |   |   |   |   |   |   |   |   |   |   |   |   |   |   |   |   |   |   |--- 所在地(実習先)(市区町村)_由布市 >  0.500
|   |   |   |   |   |   |   |   |   |   |   |   |   |   |   |   |   |   |   |   |   |--- 入国時年齢 <= 24.500
|   |   |   |   |   |   |   |   |   |   |   |   |   |   |   |   |   |   |   |   |   |   |--- class: 0
|   |   |   |   |   |   |   |   |   |   |   |   |   |   |   |   |   |   |   |   |   |--- 入国時年齢 >  24.500
|   |   |   |   |   |   |   |   |   |   |   |   |   |   |   |   |   |   |   |   |   |   |--- class: 1
|   |   |   |   |   |   |   |   |   |   |   |   |   |   |   |   |   |   |   |--- 所在地(実習先)(都道府県)_青森県 >  0.500
|   |   |   |   |   |   |   |   |   |   |   |   |   |   |   |   |   |   |   |   |--- class: 0
|   |   |   |   |   |   |   |   |   |   |   |   |   |   |   |   |   |   |--- 所在地(実習先)(市区町村)_八尾市 >  0.500
|   |   |   |   |   |   |   |   |   |   |   |   |   |   |   |   |   |   |   |--- class: 0
|   |   |   |   |   |   |   |   |   |   |   |   |   |   |   |   |   |--- 職種関係_食品製造関係 >  0.500
|   |   |   |   |   |   |   |   |   |   |   |   |   |   |   |   |   |   |--- 入国時年齢 <= 22.500
|   |   |   |   |   |   |   |   |   |   |   |   |   |   |   |   |   |   |   |--- 派遣会社_MYANMAR UNITED SK CO.,LTD <= 0.500
|   |   |   |   |   |   |   |   |   |   |   |   |   |   |   |   |   |   |   |   |--- class: 1
|   |   |   |   |   |   |   |   |   |   |   |   |   |   |   |   |   |   |   |--- 派遣会社_MYANMAR UNITED SK CO.,LTD >  0.500
|   |   |   |   |   |   |   |   |   |   |   |   |   |   |   |   |   |   |   |   |--- class: 0
|   |   |   |   |   |   |   |   |   |   |   |   |   |   |   |   |   |   |--- 入国時年齢 >  22.500
|   |   |   |   |   |   |   |   |   |   |   |   |   |   |   |   |   |   |   |--- class: 0
|   |   |   |   |   |   |   |   |   |   |   |   |   |   |   |   |--- 職種_プラスチック成形 >  0.500
|   |   |   |   |   |   |   |   |   |   |   |   |   |   |   |   |   |--- 所在地(実習先)(市区町村)_米子市 <= 0.500
|   |   |   |   |   |   |   |   |   |   |   |   |   |   |   |   |   |   |--- class: 0
|   |   |   |   |   |   |   |   |   |   |   |   |   |   |   |   |   |--- 所在地(実習先)(市区町村)_米子市 >  0.500
|   |   |   |   |   |   |   |   |   |   |   |   |   |   |   |   |   |   |--- class: 0
|   |   |   |   |   |   |   |   |   |   |   |   |   |   |   |--- 入国時年齢 >  27.500
|   |   |   |   |   |   |   |   |   |   |   |   |   |   |   |   |--- 派遣会社_MOE YAN GENERAL SERVICES CO.,LTD <= 0.500
|   |   |   |   |   |   |   |   |   |   |   |   |   |   |   |   |   |--- class: 0
|   |   |   |   |   |   |   |   |   |   |   |   |   |   |   |   |--- 派遣会社_MOE YAN GENERAL SERVICES CO.,LTD >  0.500
|   |   |   |   |   |   |   |   |   |   |   |   |   |   |   |   |   |--- class: 0
|   |   |   |   |   |   |   |   |   |   |   |   |   |   |--- 所在地(実習先)(都道府県)_千葉県 >  0.500
|   |   |   |   |   |   |   |   |   |   |   |   |   |   |   |--- 入国時年齢 <= 24.500
|   |   |   |   |   |   |   |   |   |   |   |   |   |   |   |   |--- class: 0
|   |   |   |   |   |   |   |   |   |   |   |   |   |   |   |--- 入国時年齢 >  24.500
|   |   |   |   |   |   |   |   |   |   |   |   |   |   |   |   |--- class: 0
|   |   |   |   |   |   |   |   |   |   |   |   |   |--- 職種_林業 >  0.500
|   |   |   |   |   |   |   |   |   |   |   |   |   |   |--- 入国時年齢 <= 24.500
|   |   |   |   |   |   |   |   |   |   |   |   |   |   |   |--- class: 0
|   |   |   |   |   |   |   |   |   |   |   |   |   |   |--- 入国時年齢 >  24.500
|   |   |   |   |   |   |   |   |   |   |   |   |   |   |   |--- class: 0
|   |   |   |   |   |   |   |   |   |   |   |   |--- 組合_健康生活事業協同組合 >  0.500
|   |   |   |   |   |   |   |   |   |   |   |   |   |--- 所在地(実習先)(市区町村)_町田市 <= 0.500
|   |   |   |   |   |   |   |   |   |   |   |   |   |   |--- class: 0
|   |   |   |   |   |   |   |   |   |   |   |   |   |--- 所在地(実習先)(市区町村)_町田市 >  0.500
|   |   |   |   |   |   |   |   |   |   |   |   |   |   |--- class: 0
|   |   |   |   |   |   |   |   |   |   |   |--- 所在地(実習先)(市区町村)_生駒市 >  0.500
|   |   |   |   |   |   |   |   |   |   |   |   |--- 入国時年齢 <= 22.500
|   |   |   |   |   |   |   |   |   |   |   |   |   |--- class: 0
|   |   |   |   |   |   |   |   |   |   |   |   |--- 入国時年齢 >  22.500
|   |   |   |   |   |   |   |   |   |   |   |   |   |--- class: 0
|   |   |   |   |   |   |   |   |   |   |--- 組合_西日本海外業務支援協同組合 >  0.500
|   |   |   |   |   |   |   |   |   |   |   |--- 入国時年齢 <= 22.500
|   |   |   |   |   |   |   |   |   |   |   |   |--- class: 0
|   |   |   |   |   |   |   |   |   |   |   |--- 入国時年齢 >  22.500
|   |   |   |   |   |   |   |   |   |   |   |   |--- class: 0
|   |   |   |   |   |   |   |   |   |--- 所在地(実習先)(都道府県)_埼玉県 >  0.500
|   |   |   |   |   |   |   |   |   |   |--- 所属機関_MAY KINN SAN COMPANY LIMITED <= 0.500
|   |   |   |   |   |   |   |   |   |   |   |--- class: 0
|   |   |   |   |   |   |   |   |   |   |--- 所属機関_MAY KINN SAN COMPANY LIMITED >  0.500
|   |   |   |   |   |   |   |   |   |   |   |--- class: 0
|   |   |   |   |   |   |   |   |--- 性別_女 >  0.500
|   |   |   |   |   |   |   |   |   |--- 入国時年齢 <= 22.500
|   |   |   |   |   |   |   |   |   |   |--- class: 0
|   |   |   |   |   |   |   |   |   |--- 入国時年齢 >  22.500
|   |   |   |   |   |   |   |   |   |   |--- 所在地(実習先)(市区町村)_白石市 <= 0.500
|   |   |   |   |   |   |   |   |   |   |   |--- 所在地(実習先)(市区町村)_気仙沼市 <= 0.500
|   |   |   |   |   |   |   |   |   |   |   |   |--- 所在地(実習先)(都道府県)_群馬県 <= 0.500
|   |   |   |   |   |   |   |   |   |   |   |   |   |--- 組合_西日本海外業務支援協同組合 <= 0.500
|   |   |   |   |   |   |   |   |   |   |   |   |   |   |--- 所在地(実習先)(都道府県)_岩手県 <= 0.500
|   |   |   |   |   |   |   |   |   |   |   |   |   |   |   |--- 所在地(実習先)(市区町村)_上北郡東北町 <= 0.500
|   |   |   |   |   |   |   |   |   |   |   |   |   |   |   |   |--- 組合_一般社団法人日中科学技術文化センター <= 0.500
|   |   |   |   |   |   |   |   |   |   |   |   |   |   |   |   |   |--- 職種_耕種農業 <= 0.500
|   |   |   |   |   |   |   |   |   |   |   |   |   |   |   |   |   |   |--- 所在地(実習先)(市区町村)_北九州市 <= 0.500
|   |   |   |   |   |   |   |   |   |   |   |   |   |   |   |   |   |   |   |--- 組合_宮城県農水産サービス振興協同組合 <= 0.500
|   |   |   |   |   |   |   |   |   |   |   |   |   |   |   |   |   |   |   |   |--- 所在地(実習先)(市区町村)_鹿児島市 <= 0.500
|   |   |   |   |   |   |   |   |   |   |   |   |   |   |   |   |   |   |   |   |   |--- 所在地(実習先)(市区町村)_石巻市 <= 0.500
|   |   |   |   |   |   |   |   |   |   |   |   |   |   |   |   |   |   |   |   |   |   |--- class: 0
|   |   |   |   |   |   |   |   |   |   |   |   |   |   |   |   |   |   |   |   |   |--- 所在地(実習先)(市区町村)_石巻市 >  0.500
|   |   |   |   |   |   |   |   |   |   |   |   |   |   |   |   |   |   |   |   |   |   |--- 派遣会社_MYANMAR UNITED SK CO.,LTD <= 0.500
|   |   |   |   |   |   |   |   |   |   |   |   |   |   |   |   |   |   |   |   |   |   |   |--- 職種_非加熱性水産加工食品製造業 <= 0.500
|   |   |   |   |   |   |   |   |   |   |   |   |   |   |   |   |   |   |   |   |   |   |   |   |--- class: 0
|   |   |   |   |   |   |   |   |   |   |   |   |   |   |   |   |   |   |   |   |   |   |   |--- 職種_非加熱性水産加工食品製造業 >  0.500
|   |   |   |   |   |   |   |   |   |   |   |   |   |   |   |   |   |   |   |   |   |   |   |   |--- 入国時年齢 <= 24.500
|   |   |   |   |   |   |   |   |   |   |   |   |   |   |   |   |   |   |   |   |   |   |   |   |   |--- class: 0
|   |   |   |   |   |   |   |   |   |   |   |   |   |   |   |   |   |   |   |   |   |   |   |   |--- 入国時年齢 >  24.500
|   |   |   |   |   |   |   |   |   |   |   |   |   |   |   |   |   |   |   |   |   |   |   |   |   |--- 入国時年齢 <= 25.500
|   |   |   |   |   |   |   |   |   |   |   |   |   |   |   |   |   |   |   |   |   |   |   |   |   |   |--- 派遣会社_TOP COMET CO.,LTD <= 0.500
|   |   |   |   |   |   |   |   |   |   |   |   |   |   |   |   |   |   |   |   |   |   |   |   |   |   |   |--- class: 1
|   |   |   |   |   |   |   |   |   |   |   |   |   |   |   |   |   |   |   |   |   |   |   |   |   |   |--- 派遣会社_TOP COMET CO.,LTD >  0.500
|   |   |   |   |   |   |   |   |   |   |   |   |   |   |   |   |   |   |   |   |   |   |   |   |   |   |   |--- class: 0
|   |   |   |   |   |   |   |   |   |   |   |   |   |   |   |   |   |   |   |   |   |   |   |   |   |--- 入国時年齢 >  25.500
|   |   |   |   |   |   |   |   |   |   |   |   |   |   |   |   |   |   |   |   |   |   |   |   |   |   |--- class: 0
|   |   |   |   |   |   |   |   |   |   |   |   |   |   |   |   |   |   |   |   |   |   |--- 派遣会社_MYANMAR UNITED SK CO.,LTD >  0.500
|   |   |   |   |   |   |   |   |   |   |   |   |   |   |   |   |   |   |   |   |   |   |   |--- 職種_非加熱性水産加工食品製造業 <= 0.500
|   |   |   |   |   |   |   |   |   |   |   |   |   |   |   |   |   |   |   |   |   |   |   |   |--- 入国時年齢 <= 30.000
|   |   |   |   |   |   |   |   |   |   |   |   |   |   |   |   |   |   |   |   |   |   |   |   |   |--- 入国時年齢 <= 23.500
|   |   |   |   |   |   |   |   |   |   |   |   |   |   |   |   |   |   |   |   |   |   |   |   |   |   |--- class: 0
|   |   |   |   |   |   |   |   |   |   |   |   |   |   |   |   |   |   |   |   |   |   |   |   |   |--- 入国時年齢 >  23.500
|   |   |   |   |   |   |   |   |   |   |   |   |   |   |   |   |   |   |   |   |   |   |   |   |   |   |--- 入国時年齢 <= 25.000
|   |   |   |   |   |   |   |   |   |   |   |   |   |   |   |   |   |   |   |   |   |   |   |   |   |   |   |--- class: 1
|   |   |   |   |   |   |   |   |   |   |   |   |   |   |   |   |   |   |   |   |   |   |   |   |   |   |--- 入国時年齢 >  25.000
|   |   |   |   |   |   |   |   |   |   |   |   |   |   |   |   |   |   |   |   |   |   |   |   |   |   |   |--- 入国時年齢 <= 26.500
|   |   |   |   |   |   |   |   |   |   |   |   |   |   |   |   |   |   |   |   |   |   |   |   |   |   |   |   |--- class: 0
|   |   |   |   |   |   |   |   |   |   |   |   |   |   |   |   |   |   |   |   |   |   |   |   |   |   |   |--- 入国時年齢 >  26.500
|   |   |   |   |   |   |   |   |   |   |   |   |   |   |   |   |   |   |   |   |   |   |   |   |   |   |   |   |--- class: 1
|   |   |   |   |   |   |   |   |   |   |   |   |   |   |   |   |   |   |   |   |   |   |   |   |--- 入国時年齢 >  30.000
|   |   |   |   |   |   |   |   |   |   |   |   |   |   |   |   |   |   |   |   |   |   |   |   |   |--- class: 0
|   |   |   |   |   |   |   |   |   |   |   |   |   |   |   |   |   |   |   |   |   |   |   |--- 職種_非加熱性水産加工食品製造業 >  0.500
|   |   |   |   |   |   |   |   |   |   |   |   |   |   |   |   |   |   |   |   |   |   |   |   |--- class: 0
|   |   |   |   |   |   |   |   |   |   |   |   |   |   |   |   |   |   |   |   |--- 所在地(実習先)(市区町村)_鹿児島市 >  0.500
|   |   |   |   |   |   |   |   |   |   |   |   |   |   |   |   |   |   |   |   |   |--- 入国時年齢 <= 28.500
|   |   |   |   |   |   |   |   |   |   |   |   |   |   |   |   |   |   |   |   |   |   |--- class: 0
|   |   |   |   |   |   |   |   |   |   |   |   |   |   |   |   |   |   |   |   |   |--- 入国時年齢 >  28.500
|   |   |   |   |   |   |   |   |   |   |   |   |   |   |   |   |   |   |   |   |   |   |--- 入国時年齢 <= 31.000
|   |   |   |   |   |   |   |   |   |   |   |   |   |   |   |   |   |   |   |   |   |   |   |--- class: 1
|   |   |   |   |   |   |   |   |   |   |   |   |   |   |   |   |   |   |   |   |   |   |--- 入国時年齢 >  31.000
|   |   |   |   |   |   |   |   |   |   |   |   |   |   |   |   |   |   |   |   |   |   |   |--- class: 0
|   |   |   |   |   |   |   |   |   |   |   |   |   |   |   |   |   |   |   |--- 組合_宮城県農水産サービス振興協同組合 >  0.500
|   |   |   |   |   |   |   |   |   |   |   |   |   |   |   |   |   |   |   |   |--- 入国時年齢 <= 24.500
|   |   |   |   |   |   |   |   |   |   |   |   |   |   |   |   |   |   |   |   |   |--- 派遣会社_SUT ZAI CO.,LTD <= 0.500
|   |   |   |   |   |   |   |   |   |   |   |   |   |   |   |   |   |   |   |   |   |   |--- class: 0
|   |   |   |   |   |   |   |   |   |   |   |   |   |   |   |   |   |   |   |   |   |--- 派遣会社_SUT ZAI CO.,LTD >  0.500
|   |   |   |   |   |   |   |   |   |   |   |   |   |   |   |   |   |   |   |   |   |   |--- 所在地(実習先)(市区町村)_石巻市 <= 0.500
|   |   |   |   |   |   |   |   |   |   |   |   |   |   |   |   |   |   |   |   |   |   |   |--- 所在地(実習先)(市区町村)_仙台市 <= 0.500
|   |   |   |   |   |   |   |   |   |   |   |   |   |   |   |   |   |   |   |   |   |   |   |   |--- class: 1
|   |   |   |   |   |   |   |   |   |   |   |   |   |   |   |   |   |   |   |   |   |   |   |--- 所在地(実習先)(市区町村)_仙台市 >  0.500
|   |   |   |   |   |   |   |   |   |   |   |   |   |   |   |   |   |   |   |   |   |   |   |   |--- 入国時年齢 <= 23.500
|   |   |   |   |   |   |   |   |   |   |   |   |   |   |   |   |   |   |   |   |   |   |   |   |   |--- class: 1
|   |   |   |   |   |   |   |   |   |   |   |   |   |   |   |   |   |   |   |   |   |   |   |   |--- 入国時年齢 >  23.500
|   |   |   |   |   |   |   |   |   |   |   |   |   |   |   |   |   |   |   |   |   |   |   |   |   |--- class: 1
|   |   |   |   |   |   |   |   |   |   |   |   |   |   |   |   |   |   |   |   |   |   |--- 所在地(実習先)(市区町村)_石巻市 >  0.500
|   |   |   |   |   |   |   |   |   |   |   |   |   |   |   |   |   |   |   |   |   |   |   |--- class: 0
|   |   |   |   |   |   |   |   |   |   |   |   |   |   |   |   |   |   |   |   |--- 入国時年齢 >  24.500
|   |   |   |   |   |   |   |   |   |   |   |   |   |   |   |   |   |   |   |   |   |--- 所在地(実習先)(市区町村)_塩竈市 <= 0.500
|   |   |   |   |   |   |   |   |   |   |   |   |   |   |   |   |   |   |   |   |   |   |--- class: 0
|   |   |   |   |   |   |   |   |   |   |   |   |   |   |   |   |   |   |   |   |   |--- 所在地(実習先)(市区町村)_塩竈市 >  0.500
|   |   |   |   |   |   |   |   |   |   |   |   |   |   |   |   |   |   |   |   |   |   |--- class: 0
|   |   |   |   |   |   |   |   |   |   |   |   |   |   |   |   |   |   |--- 所在地(実習先)(市区町村)_北九州市 >  0.500
|   |   |   |   |   |   |   |   |   |   |   |   |   |   |   |   |   |   |   |--- 入国時年齢 <= 25.500
|   |   |   |   |   |   |   |   |   |   |   |   |   |   |   |   |   |   |   |   |--- class: 0
|   |   |   |   |   |   |   |   |   |   |   |   |   |   |   |   |   |   |   |--- 入国時年齢 >  25.500
|   |   |   |   |   |   |   |   |   |   |   |   |   |   |   |   |   |   |   |   |--- class: 1
|   |   |   |   |   |   |   |   |   |   |   |   |   |   |   |   |   |--- 職種_耕種農業 >  0.500
|   |   |   |   |   |   |   |   |   |   |   |   |   |   |   |   |   |   |--- class: 0
|   |   |   |   |   |   |   |   |   |   |   |   |   |   |   |   |--- 組合_一般社団法人日中科学技術文化センター >  0.500
|   |   |   |   |   |   |   |   |   |   |   |   |   |   |   |   |   |--- 入国時年齢 <= 27.500
|   |   |   |   |   |   |   |   |   |   |   |   |   |   |   |   |   |   |--- 入国時年齢 <= 23.500
|   |   |   |   |   |   |   |   |   |   |   |   |   |   |   |   |   |   |   |--- 職種_耕種農業 <= 0.500
|   |   |   |   |   |   |   |   |   |   |   |   |   |   |   |   |   |   |   |   |--- class: 0
|   |   |   |   |   |   |   |   |   |   |   |   |   |   |   |   |   |   |   |--- 職種_耕種農業 >  0.500
|   |   |   |   |   |   |   |   |   |   |   |   |   |   |   |   |   |   |   |   |--- class: 1
|   |   |   |   |   |   |   |   |   |   |   |   |   |   |   |   |   |   |--- 入国時年齢 >  23.500
|   |   |   |   |   |   |   |   |   |   |   |   |   |   |   |   |   |   |   |--- class: 0
|   |   |   |   |   |   |   |   |   |   |   |   |   |   |   |   |   |--- 入国時年齢 >  27.500
|   |   |   |   |   |   |   |   |   |   |   |   |   |   |   |   |   |   |--- 派遣会社_SUT ZAI CO.,LTD <= 0.500
|   |   |   |   |   |   |   |   |   |   |   |   |   |   |   |   |   |   |   |--- class: 1
|   |   |   |   |   |   |   |   |   |   |   |   |   |   |   |   |   |   |--- 派遣会社_SUT ZAI CO.,LTD >  0.500
|   |   |   |   |   |   |   |   |   |   |   |   |   |   |   |   |   |   |   |--- class: 0
|   |   |   |   |   |   |   |   |   |   |   |   |   |   |   |--- 所在地(実習先)(市区町村)_上北郡東北町 >  0.500
|   |   |   |   |   |   |   |   |   |   |   |   |   |   |   |   |--- class: 1
|   |   |   |   |   |   |   |   |   |   |   |   |   |   |--- 所在地(実習先)(都道府県)_岩手県 >  0.500
|   |   |   |   |   |   |   |   |   |   |   |   |   |   |   |--- 入国時年齢 <= 26.500
|   |   |   |   |   |   |   |   |   |   |   |   |   |   |   |   |--- class: 0
|   |   |   |   |   |   |   |   |   |   |   |   |   |   |   |--- 入国時年齢 >  26.500
|   |   |   |   |   |   |   |   |   |   |   |   |   |   |   |   |--- class: 1
|   |   |   |   |   |   |   |   |   |   |   |   |   |--- 組合_西日本海外業務支援協同組合 >  0.500
|   |   |   |   |   |   |   |   |   |   |   |   |   |   |--- class: 0
|   |   |   |   |   |   |   |   |   |   |   |   |--- 所在地(実習先)(都道府県)_群馬県 >  0.500
|   |   |   |   |   |   |   |   |   |   |   |   |   |--- class: 0
|   |   |   |   |   |   |   |   |   |   |   |--- 所在地(実習先)(市区町村)_気仙沼市 >  0.500
|   |   |   |   |   |   |   |   |   |   |   |   |--- class: 0
|   |   |   |   |   |   |   |   |   |   |--- 所在地(実習先)(市区町村)_白石市 >  0.500
|   |   |   |   |   |   |   |   |   |   |   |--- class: 0
|   |   |   |   |   |   |   |--- 職種_水産練り製品製造 >  0.500
|   |   |   |   |   |   |   |   |--- class: 0
|   |   |   |   |   |--- 職種関係_機械・金属関係 >  0.500
|   |   |   |   |   |   |--- class: 0
|   |   |   |   |--- 職種_そう菜製造業 >  0.500
|   |   |   |   |   |--- 派遣会社_TOP COMET CO.,LTD <= 0.500
|   |   |   |   |   |   |--- 入国時年齢 <= 26.500
|   |   |   |   |   |   |   |--- class: 0
|   |   |   |   |   |   |--- 入国時年齢 >  26.500
|   |   |   |   |   |   |   |--- 所在地(実習先)(市区町村)_仙台市 <= 0.500
|   |   |   |   |   |   |   |   |--- class: 0
|   |   |   |   |   |   |   |--- 所在地(実習先)(市区町村)_仙台市 >  0.500
|   |   |   |   |   |   |   |   |--- 組合_宮城県農水産サービス振興協同組合 <= 0.500
|   |   |   |   |   |   |   |   |   |--- 入国時年齢 <= 27.500
|   |   |   |   |   |   |   |   |   |   |--- class: 1
|   |   |   |   |   |   |   |   |   |--- 入国時年齢 >  27.500
|   |   |   |   |   |   |   |   |   |   |--- class: 0
|   |   |   |   |   |   |   |   |--- 組合_宮城県農水産サービス振興協同組合 >  0.500
|   |   |   |   |   |   |   |   |   |--- class: 0
|   |   |   |   |   |--- 派遣会社_TOP COMET CO.,LTD >  0.500
|   |   |   |   |   |   |--- 所在地(実習先)(都道府県)_山梨県 <= 0.500
|   |   |   |   |   |   |   |--- class: 0
|   |   |   |   |   |   |--- 所在地(実習先)(都道府県)_山梨県 >  0.500
|   |   |   |   |   |   |   |--- 入国時年齢 <= 21.000
|   |   |   |   |   |   |   |   |--- class: 1
|   |   |   |   |   |   |   |--- 入国時年齢 >  21.000
|   |   |   |   |   |   |   |   |--- class: 0
|   |   |   |--- 派遣会社_M.H.E CO.,LTD >  0.500
|   |   |   |   |--- 所在地(実習先)(市区町村)_石巻市 <= 0.500
|   |   |   |   |   |--- 入国時年齢 <= 27.000
|   |   |   |   |   |   |--- 所在地(実習先)(都道府県)_北海道 <= 0.500
|   |   |   |   |   |   |   |--- 入国時年齢 <= 18.500
|   |   |   |   |   |   |   |   |--- class: 0
|   |   |   |   |   |   |   |--- 入国時年齢 >  18.500
|   |   |   |   |   |   |   |   |--- 組合_JOP協同組合 <= 0.500
|   |   |   |   |   |   |   |   |   |--- class: 0
|   |   |   |   |   |   |   |   |--- 組合_JOP協同組合 >  0.500
|   |   |   |   |   |   |   |   |   |--- 所属機関_HIGH WIN INTERNATIONAL CO.,LTD <= 0.500
|   |   |   |   |   |   |   |   |   |   |--- 所在地(実習先)(市区町村)_北葛飾郡松伏町 <= 0.500
|   |   |   |   |   |   |   |   |   |   |   |--- 入国時年齢 <= 22.500
|   |   |   |   |   |   |   |   |   |   |   |   |--- 所属機関_GREAT MYANMAR CO.,LTD <= 0.500
|   |   |   |   |   |   |   |   |   |   |   |   |   |--- class: 0
|   |   |   |   |   |   |   |   |   |   |   |   |--- 所属機関_GREAT MYANMAR CO.,LTD >  0.500
|   |   |   |   |   |   |   |   |   |   |   |   |   |--- class: 1
|   |   |   |   |   |   |   |   |   |   |   |--- 入国時年齢 >  22.500
|   |   |   |   |   |   |   |   |   |   |   |   |--- 入国時年齢 <= 23.500
|   |   |   |   |   |   |   |   |   |   |   |   |   |--- class: 0
|   |   |   |   |   |   |   |   |   |   |   |   |--- 入国時年齢 >  23.500
|   |   |   |   |   |   |   |   |   |   |   |   |   |--- 所在地(実習先)(市区町村)_登米市 <= 0.500
|   |   |   |   |   |   |   |   |   |   |   |   |   |   |--- class: 1
|   |   |   |   |   |   |   |   |   |   |   |   |   |--- 所在地(実習先)(市区町村)_登米市 >  0.500
|   |   |   |   |   |   |   |   |   |   |   |   |   |   |--- 入国時年齢 <= 25.000
|   |   |   |   |   |   |   |   |   |   |   |   |   |   |   |--- class: 1
|   |   |   |   |   |   |   |   |   |   |   |   |   |   |--- 入国時年齢 >  25.000
|   |   |   |   |   |   |   |   |   |   |   |   |   |   |   |--- class: 0
|   |   |   |   |   |   |   |   |   |   |--- 所在地(実習先)(市区町村)_北葛飾郡松伏町 >  0.500
|   |   |   |   |   |   |   |   |   |   |   |--- class: 0
|   |   |   |   |   |   |   |   |   |--- 所属機関_HIGH WIN INTERNATIONAL CO.,LTD >  0.500
|   |   |   |   |   |   |   |   |   |   |--- class: 0
|   |   |   |   |   |   |--- 所在地(実習先)(都道府県)_北海道 >  0.500
|   |   |   |   |   |   |   |--- 入国時年齢 <= 21.500
|   |   |   |   |   |   |   |   |--- class: 0
|   |   |   |   |   |   |   |--- 入国時年齢 >  21.500
|   |   |   |   |   |   |   |   |--- class: 0
|   |   |   |   |   |--- 入国時年齢 >  27.000
|   |   |   |   |   |   |--- 職種_そう菜製造業 <= 0.500
|   |   |   |   |   |   |   |--- class: 0
|   |   |   |   |   |   |--- 職種_そう菜製造業 >  0.500
|   |   |   |   |   |   |   |--- class: 0
|   |   |   |   |--- 所在地(実習先)(市区町村)_石巻市 >  0.500
|   |   |   |   |   |--- 所属機関_AUNG THAIN KHA NGAR PON <= 0.500
|   |   |   |   |   |   |--- class: 0
|   |   |   |   |   |--- 所属機関_AUNG THAIN KHA NGAR PON >  0.500
|   |   |   |   |   |   |--- class: 0
|   |--- 組合_日中ネットワークサービス協同組合 >  0.500
|   |   |--- 入国時年齢 <= 23.500
|   |   |   |--- class: 0
|   |   |--- 入国時年齢 >  23.500
|   |   |   |--- 所属機関_ATM TEXTILE CO.,LTD <= 0.500
|   |   |   |   |--- 派遣会社_SUT ZAI CO.,LTD <= 0.500
|   |   |   |   |   |--- class: 1
|   |   |   |   |--- 派遣会社_SUT ZAI CO.,LTD >  0.500
|   |   |   |   |   |--- 性別_女 <= 0.500
|   |   |   |   |   |   |--- class: 0
|   |   |   |   |   |--- 性別_女 >  0.500
|   |   |   |   |   |   |--- 入国時年齢 <= 27.000
|   |   |   |   |   |   |   |--- class: 0
|   |   |   |   |   |   |--- 入国時年齢 >  27.000
|   |   |   |   |   |   |   |--- class: 1
|   |   |   |--- 所属機関_ATM TEXTILE CO.,LTD >  0.500
|   |   |   |   |--- class: 1
|--- 職種関係_建設関係 >  0.500
|   |--- 学校所属_パティン学校 <= 0.500
|   |   |--- 職種_左官 <= 0.500
|   |   |   |--- 職種_配管 <= 0.500
|   |   |   |   |--- 所在地(実習先)(市区町村)_大刀洗町 <= 0.500
|   |   |   |   |   |--- 所在地(実習先)(市区町村)_相模原市 <= 0.500
|   |   |   |   |   |   |--- 学校所属_ネピドー学校 <= 0.500
|   |   |   |   |   |   |   |--- 所在地(実習先)(都道府県)_埼玉県 <= 0.500
|   |   |   |   |   |   |   |   |--- 所在地(実習先)(市区町村)_那珂川市 <= 0.500
|   |   |   |   |   |   |   |   |   |--- 所在地(実習先)(都道府県)_長野県 <= 0.500
|   |   |   |   |   |   |   |   |   |   |--- 所在地(実習先)(市区町村)_久留米市 <= 0.500
|   |   |   |   |   |   |   |   |   |   |   |--- 所在地(実習先)(市区町村)_岡山市 <= 0.500
|   |   |   |   |   |   |   |   |   |   |   |   |--- 所在地(実習先)(市区町村)_京都市 <= 0.500
|   |   |   |   |   |   |   |   |   |   |   |   |   |--- 所在地(実習先)(市区町村)_岩見沢市 <= 0.500
|   |   |   |   |   |   |   |   |   |   |   |   |   |   |--- 所在地(実習先)(市区町村)_江戸川区 <= 0.500
|   |   |   |   |   |   |   |   |   |   |   |   |   |   |   |--- 所在地(実習先)(市区町村)_千葉市 <= 0.500
|   |   |   |   |   |   |   |   |   |   |   |   |   |   |   |   |--- 所在地(実習先)(市区町村)_横浜市 <= 0.500
|   |   |   |   |   |   |   |   |   |   |   |   |   |   |   |   |   |--- 所在地(実習先)(市区町村)_八千代市 <= 0.500
|   |   |   |   |   |   |   |   |   |   |   |   |   |   |   |   |   |   |--- 所在地(実習先)(市区町村)_新宿区 <= 0.500
|   |   |   |   |   |   |   |   |   |   |   |   |   |   |   |   |   |   |   |--- 所在地(実習先)(市区町村)_空知郡南富良野町 <= 0.500
|   |   |   |   |   |   |   |   |   |   |   |   |   |   |   |   |   |   |   |   |--- 所在地(実習先)(市区町村)_大磯町 <= 0.500
|   |   |   |   |   |   |   |   |   |   |   |   |   |   |   |   |   |   |   |   |   |--- 所在地(実習先)(市区町村)_町田市 <= 0.500
|   |   |   |   |   |   |   |   |   |   |   |   |   |   |   |   |   |   |   |   |   |   |--- 所在地(実習先)(市区町村)_宮若市 <= 0.500
|   |   |   |   |   |   |   |   |   |   |   |   |   |   |   |   |   |   |   |   |   |   |   |--- 所在地(実習先)(都道府県)_群馬県 <= 0.500
|   |   |   |   |   |   |   |   |   |   |   |   |   |   |   |   |   |   |   |   |   |   |   |   |--- 所在地(実習先)(都道府県)_山口県 <= 0.500
|   |   |   |   |   |   |   |   |   |   |   |   |   |   |   |   |   |   |   |   |   |   |   |   |   |--- 所在地(実習先)(市区町村)_富士吉田市 <= 0.500
|   |   |   |   |   |   |   |   |   |   |   |   |   |   |   |   |   |   |   |   |   |   |   |   |   |   |--- 所在地(実習先)(市区町村)_明石市 <= 0.500
|   |   |   |   |   |   |   |   |   |   |   |   |   |   |   |   |   |   |   |   |   |   |   |   |   |   |   |--- 所在地(実習先)(市区町村)_夕張郡栗山町 <= 0.500
|   |   |   |   |   |   |   |   |   |   |   |   |   |   |   |   |   |   |   |   |   |   |   |   |   |   |   |   |--- 所在地(実習先)(都道府県)_青森県 <= 0.500
|   |   |   |   |   |   |   |   |   |   |   |   |   |   |   |   |   |   |   |   |   |   |   |   |   |   |   |   |   |--- 所在地(実習先)(市区町村)_立川市 <= 0.500
|   |   |   |   |   |   |   |   |   |   |   |   |   |   |   |   |   |   |   |   |   |   |   |   |   |   |   |   |   |   |--- 組合_アジアアグリ協同組合 <= 0.500
|   |   |   |   |   |   |   |   |   |   |   |   |   |   |   |   |   |   |   |   |   |   |   |   |   |   |   |   |   |   |   |--- 入国時年齢 <= 18.500
|   |   |   |   |   |   |   |   |   |   |   |   |   |   |   |   |   |   |   |   |   |   |   |   |   |   |   |   |   |   |   |   |--- class: 0
|   |   |   |   |   |   |   |   |   |   |   |   |   |   |   |   |   |   |   |   |   |   |   |   |   |   |   |   |   |   |   |--- 入国時年齢 >  18.500
|   |   |   |   |   |   |   |   |   |   |   |   |   |   |   |   |   |   |   |   |   |   |   |   |   |   |   |   |   |   |   |   |--- 所在地(実習先)(市区町村)_船橋市 <= 0.500
|   |   |   |   |   |   |   |   |   |   |   |   |   |   |   |   |   |   |   |   |   |   |   |   |   |   |   |   |   |   |   |   |   |--- 所在地(実習先)(市区町村)_行橋市 <= 0.500
|   |   |   |   |   |   |   |   |   |   |   |   |   |   |   |   |   |   |   |   |   |   |   |   |   |   |   |   |   |   |   |   |   |   |--- 所在地(実習先)(市区町村)_江東区 <= 0.500
|   |   |   |   |   |   |   |   |   |   |   |   |   |   |   |   |   |   |   |   |   |   |   |   |   |   |   |   |   |   |   |   |   |   |   |--- 所在地(実習先)(市区町村)_東近江市 <= 0.500
|   |   |   |   |   |   |   |   |   |   |   |   |   |   |   |   |   |   |   |   |   |   |   |   |   |   |   |   |   |   |   |   |   |   |   |   |--- 所在地(実習先)(市区町村)_茂原市 <= 0.500
|   |   |   |   |   |   |   |   |   |   |   |   |   |   |   |   |   |   |   |   |   |   |   |   |   |   |   |   |   |   |   |   |   |   |   |   |   |--- 職種_建築大工 <= 0.500
|   |   |   |   |   |   |   |   |   |   |   |   |   |   |   |   |   |   |   |   |   |   |   |   |   |   |   |   |   |   |   |   |   |   |   |   |   |   |--- 所在地(実習先)(都道府県)_宮城県 <= 0.500
|   |   |   |   |   |   |   |   |   |   |   |   |   |   |   |   |   |   |   |   |   |   |   |   |   |   |   |   |   |   |   |   |   |   |   |   |   |   |   |--- 所在地(実習先)(市区町村)_姫路市 <= 0.500
|   |   |   |   |   |   |   |   |   |   |   |   |   |   |   |   |   |   |   |   |   |   |   |   |   |   |   |   |   |   |   |   |   |   |   |   |   |   |   |   |--- 所在地(実習先)(市区町村)_鎌ケ谷市 <= 0.500
|   |   |   |   |   |   |   |   |   |   |   |   |   |   |   |   |   |   |   |   |   |   |   |   |   |   |   |   |   |   |   |   |   |   |   |   |   |   |   |   |   |--- 所在地(実習先)(市区町村)_港区 <= 0.500
|   |   |   |   |   |   |   |   |   |   |   |   |   |   |   |   |   |   |   |   |   |   |   |   |   |   |   |   |   |   |   |   |   |   |   |   |   |   |   |   |   |   |--- 所在地(実習先)(市区町村)_綾瀬市 <= 0.500
|   |   |   |   |   |   |   |   |   |   |   |   |   |   |   |   |   |   |   |   |   |   |   |   |   |   |   |   |   |   |   |   |   |   |   |   |   |   |   |   |   |   |   |--- 所在地(実習先)(市区町村)_市原市 <= 0.500
|   |   |   |   |   |   |   |   |   |   |   |   |   |   |   |   |   |   |   |   |   |   |   |   |   |   |   |   |   |   |   |   |   |   |   |   |   |   |   |   |   |   |   |   |--- 所在地(実習先)(市区町村)_茨木市 <= 0.500
|   |   |   |   |   |   |   |   |   |   |   |   |   |   |   |   |   |   |   |   |   |   |   |   |   |   |   |   |   |   |   |   |   |   |   |   |   |   |   |   |   |   |   |   |   |--- 所在地(実習先)(市区町村)_名古屋市 <= 0.500
|   |   |   |   |   |   |   |   |   |   |   |   |   |   |   |   |   |   |   |   |   |   |   |   |   |   |   |   |   |   |   |   |   |   |   |   |   |   |   |   |   |   |   |   |   |   |--- 所在地(実習先)(市区町村)_飯塚市 <= 0.500
|   |   |   |   |   |   |   |   |   |   |   |   |   |   |   |   |   |   |   |   |   |   |   |   |   |   |   |   |   |   |   |   |   |   |   |   |   |   |   |   |   |   |   |   |   |   |   |--- 所在地(実習先)(市区町村)_長岡市 <= 0.500
|   |   |   |   |   |   |   |   |   |   |   |   |   |   |   |   |   |   |   |   |   |   |   |   |   |   |   |   |   |   |   |   |   |   |   |   |   |   |   |   |   |   |   |   |   |   |   |   |--- 所在地(実習先)(都道府県)_佐賀県 <= 0.500
|   |   |   |   |   |   |   |   |   |   |   |   |   |   |   |   |   |   |   |   |   |   |   |   |   |   |   |   |   |   |   |   |   |   |   |   |   |   |   |   |   |   |   |   |   |   |   |   |   |--- 所在地(実習先)(市区町村)_上川郡美瑛町 <= 0.500
|   |   |   |   |   |   |   |   |   |   |   |   |   |   |   |   |   |   |   |   |   |   |   |   |   |   |   |   |   |   |   |   |   |   |   |   |   |   |   |   |   |   |   |   |   |   |   |   |   |   |--- 学校所属_MAY日本語学校 <= 0.500
|   |   |   |   |   |   |   |   |   |   |   |   |   |   |   |   |   |   |   |   |   |   |   |   |   |   |   |   |   |   |   |   |   |   |   |   |   |   |   |   |   |   |   |   |   |   |   |   |   |   |   |--- 所在地(実習先)(市区町村)_印西市 <= 0.500
|   |   |   |   |   |   |   |   |   |   |   |   |   |   |   |   |   |   |   |   |   |   |   |   |   |   |   |   |   |   |   |   |   |   |   |   |   |   |   |   |   |   |   |   |   |   |   |   |   |   |   |   |--- 所在地(実習先)(市区町村)_枚方市 <= 0.500
|   |   |   |   |   |   |   |   |   |   |   |   |   |   |   |   |   |   |   |   |   |   |   |   |   |   |   |   |   |   |   |   |   |   |   |   |   |   |   |   |   |   |   |   |   |   |   |   |   |   |   |   |   |--- 入国時年齢 <= 19.500
|   |   |   |   |   |   |   |   |   |   |   |   |   |   |   |   |   |   |   |   |   |   |   |   |   |   |   |   |   |   |   |   |   |   |   |   |   |   |   |   |   |   |   |   |   |   |   |   |   |   |   |   |   |   |--- 学校所属_ヤンゴン学校 <= 0.500
|   |   |   |   |   |   |   |   |   |   |   |   |   |   |   |   |   |   |   |   |   |   |   |   |   |   |   |   |   |   |   |   |   |   |   |   |   |   |   |   |   |   |   |   |   |   |   |   |   |   |   |   |   |   |   |--- class: 0
|   |   |   |   |   |   |   |   |   |   |   |   |   |   |   |   |   |   |   |   |   |   |   |   |   |   |   |   |   |   |   |   |   |   |   |   |   |   |   |   |   |   |   |   |   |   |   |   |   |   |   |   |   |   |--- 学校所属_ヤンゴン学校 >  0.500
|   |   |   |   |   |   |   |   |   |   |   |   |   |   |   |   |   |   |   |   |   |   |   |   |   |   |   |   |   |   |   |   |   |   |   |   |   |   |   |   |   |   |   |   |   |   |   |   |   |   |   |   |   |   |   |--- 組合_ハンズ協同組合 <= 0.500
|   |   |   |   |   |   |   |   |   |   |   |   |   |   |   |   |   |   |   |   |   |   |   |   |   |   |   |   |   |   |   |   |   |   |   |   |   |   |   |   |   |   |   |   |   |   |   |   |   |   |   |   |   |   |   |   |--- 所在地(実習先)(都道府県)_東京都 <= 0.500
|   |   |   |   |   |   |   |   |   |   |   |   |   |   |   |   |   |   |   |   |   |   |   |   |   |   |   |   |   |   |   |   |   |   |   |   |   |   |   |   |   |   |   |   |   |   |   |   |   |   |   |   |   |   |   |   |   |--- 所在地(実習先)(市区町村)_松戸市 <= 0.500
|   |   |   |   |   |   |   |   |   |   |   |   |   |   |   |   |   |   |   |   |   |   |   |   |   |   |   |   |   |   |   |   |   |   |   |   |   |   |   |   |   |   |   |   |   |   |   |   |   |   |   |   |   |   |   |   |   |   |--- 職種_建設機械施工 <= 0.500
|   |   |   |   |   |   |   |   |   |   |   |   |   |   |   |   |   |   |   |   |   |   |   |   |   |   |   |   |   |   |   |   |   |   |   |   |   |   |   |   |   |   |   |   |   |   |   |   |   |   |   |   |   |   |   |   |   |   |   |--- class: 1
|   |   |   |   |   |   |   |   |   |   |   |   |   |   |   |   |   |   |   |   |   |   |   |   |   |   |   |   |   |   |   |   |   |   |   |   |   |   |   |   |   |   |   |   |   |   |   |   |   |   |   |   |   |   |   |   |   |   |--- 職種_建設機械施工 >  0.500
|   |   |   |   |   |   |   |   |   |   |   |   |   |   |   |   |   |   |   |   |   |   |   |   |   |   |   |   |   |   |   |   |   |   |   |   |   |   |   |   |   |   |   |   |   |   |   |   |   |   |   |   |   |   |   |   |   |   |   |--- class: 1
|   |   |   |   |   |   |   |   |   |   |   |   |   |   |   |   |   |   |   |   |   |   |   |   |   |   |   |   |   |   |   |   |   |   |   |   |   |   |   |   |   |   |   |   |   |   |   |   |   |   |   |   |   |   |   |   |   |--- 所在地(実習先)(市区町村)_松戸市 >  0.500
|   |   |   |   |   |   |   |   |   |   |   |   |   |   |   |   |   |   |   |   |   |   |   |   |   |   |   |   |   |   |   |   |   |   |   |   |   |   |   |   |   |   |   |   |   |   |   |   |   |   |   |   |   |   |   |   |   |   |--- class: 0
|   |   |   |   |   |   |   |   |   |   |   |   |   |   |   |   |   |   |   |   |   |   |   |   |   |   |   |   |   |   |   |   |   |   |   |   |   |   |   |   |   |   |   |   |   |   |   |   |   |   |   |   |   |   |   |   |--- 所在地(実習先)(都道府県)_東京都 >  0.500
|   |   |   |   |   |   |   |   |   |   |   |   |   |   |   |   |   |   |   |   |   |   |   |   |   |   |   |   |   |   |   |   |   |   |   |   |   |   |   |   |   |   |   |   |   |   |   |   |   |   |   |   |   |   |   |   |   |--- class: 0
|   |   |   |   |   |   |   |   |   |   |   |   |   |   |   |   |   |   |   |   |   |   |   |   |   |   |   |   |   |   |   |   |   |   |   |   |   |   |   |   |   |   |   |   |   |   |   |   |   |   |   |   |   |   |   |--- 組合_ハンズ協同組合 >  0.500
|   |   |   |   |   |   |   |   |   |   |   |   |   |   |   |   |   |   |   |   |   |   |   |   |   |   |   |   |   |   |   |   |   |   |   |   |   |   |   |   |   |   |   |   |   |   |   |   |   |   |   |   |   |   |   |   |--- class: 0
|   |   |   |   |   |   |   |   |   |   |   |   |   |   |   |   |   |   |   |   |   |   |   |   |   |   |   |   |   |   |   |   |   |   |   |   |   |   |   |   |   |   |   |   |   |   |   |   |   |   |   |   |   |--- 入国時年齢 >  19.500
|   |   |   |   |   |   |   |   |   |   |   |   |   |   |   |   |   |   |   |   |   |   |   |   |   |   |   |   |   |   |   |   |   |   |   |   |   |   |   |   |   |   |   |   |   |   |   |   |   |   |   |   |   |   |--- 所在地(実習先)(市区町村)_旭川市 <= 0.500
|   |   |   |   |   |   |   |   |   |   |   |   |   |   |   |   |   |   |   |   |   |   |   |   |   |   |   |   |   |   |   |   |   |   |   |   |   |   |   |   |   |   |   |   |   |   |   |   |   |   |   |   |   |   |   |--- 職種_防水施工 <= 0.500
|   |   |   |   |   |   |   |   |   |   |   |   |   |   |   |   |   |   |   |   |   |   |   |   |   |   |   |   |   |   |   |   |   |   |   |   |   |   |   |   |   |   |   |   |   |   |   |   |   |   |   |   |   |   |   |   |--- 所在地(実習先)(都道府県)_東京都 <= 0.500
|   |   |   |   |   |   |   |   |   |   |   |   |   |   |   |   |   |   |   |   |   |   |   |   |   |   |   |   |   |   |   |   |   |   |   |   |   |   |   |   |   |   |   |   |   |   |   |   |   |   |   |   |   |   |   |   |   |--- 職種_建築板金 <= 0.500
|   |   |   |   |   |   |   |   |   |   |   |   |   |   |   |   |   |   |   |   |   |   |   |   |   |   |   |   |   |   |   |   |   |   |   |   |   |   |   |   |   |   |   |   |   |   |   |   |   |   |   |   |   |   |   |   |   |   |--- 所在地(実習先)(市区町村)_稲敷郡阿見町 <= 0.500
|   |   |   |   |   |   |   |   |   |   |   |   |   |   |   |   |   |   |   |   |   |   |   |   |   |   |   |   |   |   |   |   |   |   |   |   |   |   |   |   |   |   |   |   |   |   |   |   |   |   |   |   |   |   |   |   |   |   |   |--- 組合_アシスト国際事業協同組合 <= 0.500
|   |   |   |   |   |   |   |   |   |   |   |   |   |   |   |   |   |   |   |   |   |   |   |   |   |   |   |   |   |   |   |   |   |   |   |   |   |   |   |   |   |   |   |   |   |   |   |   |   |   |   |   |   |   |   |   |   |   |   |   |--- 職種_とび <= 0.500
|   |   |   |   |   |   |   |   |   |   |   |   |   |   |   |   |   |   |   |   |   |   |   |   |   |   |   |   |   |   |   |   |   |   |   |   |   |   |   |   |   |   |   |   |   |   |   |   |   |   |   |   |   |   |   |   |   |   |   |   |   |--- 入国時年齢 <= 23.500
|   |   |   |   |   |   |   |   |   |   |   |   |   |   |   |   |   |   |   |   |   |   |   |   |   |   |   |   |   |   |   |   |   |   |   |   |   |   |   |   |   |   |   |   |   |   |   |   |   |   |   |   |   |   |   |   |   |   |   |   |   |   |--- 組合_ウエストワード協同組合 <= 0.500
|   |   |   |   |   |   |   |   |   |   |   |   |   |   |   |   |   |   |   |   |   |   |   |   |   |   |   |   |   |   |   |   |   |   |   |   |   |   |   |   |   |   |   |   |   |   |   |   |   |   |   |   |   |   |   |   |   |   |   |   |   |   |   |--- class: 1
|   |   |   |   |   |   |   |   |   |   |   |   |   |   |   |   |   |   |   |   |   |   |   |   |   |   |   |   |   |   |   |   |   |   |   |   |   |   |   |   |   |   |   |   |   |   |   |   |   |   |   |   |   |   |   |   |   |   |   |   |   |   |--- 組合_ウエストワード協同組合 >  0.500
|   |   |   |   |   |   |   |   |   |   |   |   |   |   |   |   |   |   |   |   |   |   |   |   |   |   |   |   |   |   |   |   |   |   |   |   |   |   |   |   |   |   |   |   |   |   |   |   |   |   |   |   |   |   |   |   |   |   |   |   |   |   |   |--- 入国時年齢 <= 20.500
|   |   |   |   |   |   |   |   |   |   |   |   |   |   |   |   |   |   |   |   |   |   |   |   |   |   |   |   |   |   |   |   |   |   |   |   |   |   |   |   |   |   |   |   |   |   |   |   |   |   |   |   |   |   |   |   |   |   |   |   |   |   |   |   |--- class: 1
|   |   |   |   |   |   |   |   |   |   |   |   |   |   |   |   |   |   |   |   |   |   |   |   |   |   |   |   |   |   |   |   |   |   |   |   |   |   |   |   |   |   |   |   |   |   |   |   |   |   |   |   |   |   |   |   |   |   |   |   |   |   |   |--- 入国時年齢 >  20.500
|   |   |   |   |   |   |   |   |   |   |   |   |   |   |   |   |   |   |   |   |   |   |   |   |   |   |   |   |   |   |   |   |   |   |   |   |   |   |   |   |   |   |   |   |   |   |   |   |   |   |   |   |   |   |   |   |   |   |   |   |   |   |   |   |--- class: 0
|   |   |   |   |   |   |   |   |   |   |   |   |   |   |   |   |   |   |   |   |   |   |   |   |   |   |   |   |   |   |   |   |   |   |   |   |   |   |   |   |   |   |   |   |   |   |   |   |   |   |   |   |   |   |   |   |   |   |   |   |   |--- 入国時年齢 >  23.500
|   |   |   |   |   |   |   |   |   |   |   |   |   |   |   |   |   |   |   |   |   |   |   |   |   |   |   |   |   |   |   |   |   |   |   |   |   |   |   |   |   |   |   |   |   |   |   |   |   |   |   |   |   |   |   |   |   |   |   |   |   |   |--- 派遣会社_SUT ZAI CO.,LTD <= 0.500
|   |   |   |   |   |   |   |   |   |   |   |   |   |   |   |   |   |   |   |   |   |   |   |   |   |   |   |   |   |   |   |   |   |   |   |   |   |   |   |   |   |   |   |   |   |   |   |   |   |   |   |   |   |   |   |   |   |   |   |   |   |   |   |--- 入国時年齢 <= 27.500
|   |   |   |   |   |   |   |   |   |   |   |   |   |   |   |   |   |   |   |   |   |   |   |   |   |   |   |   |   |   |   |   |   |   |   |   |   |   |   |   |   |   |   |   |   |   |   |   |   |   |   |   |   |   |   |   |   |   |   |   |   |   |   |   |--- 入国時年齢 <= 26.500
|   |   |   |   |   |   |   |   |   |   |   |   |   |   |   |   |   |   |   |   |   |   |   |   |   |   |   |   |   |   |   |   |   |   |   |   |   |   |   |   |   |   |   |   |   |   |   |   |   |   |   |   |   |   |   |   |   |   |   |   |   |   |   |   |   |--- 所在地(実習先)(都道府県)_千葉県 <= 0.500
|   |   |   |   |   |   |   |   |   |   |   |   |   |   |   |   |   |   |   |   |   |   |   |   |   |   |   |   |   |   |   |   |   |   |   |   |   |   |   |   |   |   |   |   |   |   |   |   |   |   |   |   |   |   |   |   |   |   |   |   |   |   |   |   |   |   |--- 組合_エフ・アドバンス経済協同組合 <= 0.500
|   |   |   |   |   |   |   |   |   |   |   |   |   |   |   |   |   |   |   |   |   |   |   |   |   |   |   |   |   |   |   |   |   |   |   |   |   |   |   |   |   |   |   |   |   |   |   |   |   |   |   |   |   |   |   |   |   |   |   |   |   |   |   |   |   |   |   |--- class: 1
|   |   |   |   |   |   |   |   |   |   |   |   |   |   |   |   |   |   |   |   |   |   |   |   |   |   |   |   |   |   |   |   |   |   |   |   |   |   |   |   |   |   |   |   |   |   |   |   |   |   |   |   |   |   |   |   |   |   |   |   |   |   |   |   |   |   |--- 組合_エフ・アドバンス経済協同組合 >  0.500
|   |   |   |   |   |   |   |   |   |   |   |   |   |   |   |   |   |   |   |   |   |   |   |   |   |   |   |   |   |   |   |   |   |   |   |   |   |   |   |   |   |   |   |   |   |   |   |   |   |   |   |   |   |   |   |   |   |   |   |   |   |   |   |   |   |   |   |--- 入国時年齢 <= 25.500
|   |   |   |   |   |   |   |   |   |   |   |   |   |   |   |   |   |   |   |   |   |   |   |   |   |   |   |   |   |   |   |   |   |   |   |   |   |   |   |   |   |   |   |   |   |   |   |   |   |   |   |   |   |   |   |   |   |   |   |   |   |   |   |   |   |   |   |   |--- 派遣会社_MOE YAN GENERAL SERVICES CO.,LTD <= 0.500
|   |   |   |   |   |   |   |   |   |   |   |   |   |   |   |   |   |   |   |   |   |   |   |   |   |   |   |   |   |   |   |   |   |   |   |   |   |   |   |   |   |   |   |   |   |   |   |   |   |   |   |   |   |   |   |   |   |   |   |   |   |   |   |   |   |   |   |   |   |--- 入国時年齢 <= 24.500
|   |   |   |   |   |   |   |   |   |   |   |   |   |   |   |   |   |   |   |   |   |   |   |   |   |   |   |   |   |   |   |   |   |   |   |   |   |   |   |   |   |   |   |   |   |   |   |   |   |   |   |   |   |   |   |   |   |   |   |   |   |   |   |   |   |   |   |   |   |   |--- class: 1
|   |   |   |   |   |   |   |   |   |   |   |   |   |   |   |   |   |   |   |   |   |   |   |   |   |   |   |   |   |   |   |   |   |   |   |   |   |   |   |   |   |   |   |   |   |   |   |   |   |   |   |   |   |   |   |   |   |   |   |   |   |   |   |   |   |   |   |   |   |--- 入国時年齢 >  24.500
|   |   |   |   |   |   |   |   |   |   |   |   |   |   |   |   |   |   |   |   |   |   |   |   |   |   |   |   |   |   |   |   |   |   |   |   |   |   |   |   |   |   |   |   |   |   |   |   |   |   |   |   |   |   |   |   |   |   |   |   |   |   |   |   |   |   |   |   |   |   |--- class: 0
|   |   |   |   |   |   |   |   |   |   |   |   |   |   |   |   |   |   |   |   |   |   |   |   |   |   |   |   |   |   |   |   |   |   |   |   |   |   |   |   |   |   |   |   |   |   |   |   |   |   |   |   |   |   |   |   |   |   |   |   |   |   |   |   |   |   |   |   |--- 派遣会社_MOE YAN GENERAL SERVICES CO.,LTD >  0.500
|   |   |   |   |   |   |   |   |   |   |   |   |   |   |   |   |   |   |   |   |   |   |   |   |   |   |   |   |   |   |   |   |   |   |   |   |   |   |   |   |   |   |   |   |   |   |   |   |   |   |   |   |   |   |   |   |   |   |   |   |   |   |   |   |   |   |   |   |   |--- class: 0
|   |   |   |   |   |   |   |   |   |   |   |   |   |   |   |   |   |   |   |   |   |   |   |   |   |   |   |   |   |   |   |   |   |   |   |   |   |   |   |   |   |   |   |   |   |   |   |   |   |   |   |   |   |   |   |   |   |   |   |   |   |   |   |   |   |   |   |--- 入国時年齢 >  25.500
|   |   |   |   |   |   |   |   |   |   |   |   |   |   |   |   |   |   |   |   |   |   |   |   |   |   |   |   |   |   |   |   |   |   |   |   |   |   |   |   |   |   |   |   |   |   |   |   |   |   |   |   |   |   |   |   |   |   |   |   |   |   |   |   |   |   |   |   |--- class: 1
|   |   |   |   |   |   |   |   |   |   |   |   |   |   |   |   |   |   |   |   |   |   |   |   |   |   |   |   |   |   |   |   |   |   |   |   |   |   |   |   |   |   |   |   |   |   |   |   |   |   |   |   |   |   |   |   |   |   |   |   |   |   |   |   |   |--- 所在地(実習先)(都道府県)_千葉県 >  0.500
|   |   |   |   |   |   |   |   |   |   |   |   |   |   |   |   |   |   |   |   |   |   |   |   |   |   |   |   |   |   |   |   |   |   |   |   |   |   |   |   |   |   |   |   |   |   |   |   |   |   |   |   |   |   |   |   |   |   |   |   |   |   |   |   |   |   |--- class: 0
|   |   |   |   |   |   |   |   |   |   |   |   |   |   |   |   |   |   |   |   |   |   |   |   |   |   |   |   |   |   |   |   |   |   |   |   |   |   |   |   |   |   |   |   |   |   |   |   |   |   |   |   |   |   |   |   |   |   |   |   |   |   |   |   |--- 入国時年齢 >  26.500
|   |   |   |   |   |   |   |   |   |   |   |   |   |   |   |   |   |   |   |   |   |   |   |   |   |   |   |   |   |   |   |   |   |   |   |   |   |   |   |   |   |   |   |   |   |   |   |   |   |   |   |   |   |   |   |   |   |   |   |   |   |   |   |   |   |--- 所在地(実習先)(市区町村)_高座郡寒川町 <= 0.500
|   |   |   |   |   |   |   |   |   |   |   |   |   |   |   |   |   |   |   |   |   |   |   |   |   |   |   |   |   |   |   |   |   |   |   |   |   |   |   |   |   |   |   |   |   |   |   |   |   |   |   |   |   |   |   |   |   |   |   |   |   |   |   |   |   |   |--- class: 0
|   |   |   |   |   |   |   |   |   |   |   |   |   |   |   |   |   |   |   |   |   |   |   |   |   |   |   |   |   |   |   |   |   |   |   |   |   |   |   |   |   |   |   |   |   |   |   |   |   |   |   |   |   |   |   |   |   |   |   |   |   |   |   |   |   |--- 所在地(実習先)(市区町村)_高座郡寒川町 >  0.500
|   |   |   |   |   |   |   |   |   |   |   |   |   |   |   |   |   |   |   |   |   |   |   |   |   |   |   |   |   |   |   |   |   |   |   |   |   |   |   |   |   |   |   |   |   |   |   |   |   |   |   |   |   |   |   |   |   |   |   |   |   |   |   |   |   |   |--- class: 0
|   |   |   |   |   |   |   |   |   |   |   |   |   |   |   |   |   |   |   |   |   |   |   |   |   |   |   |   |   |   |   |   |   |   |   |   |   |   |   |   |   |   |   |   |   |   |   |   |   |   |   |   |   |   |   |   |   |   |   |   |   |   |   |--- 入国時年齢 >  27.500
|   |   |   |   |   |   |   |   |   |   |   |   |   |   |   |   |   |   |   |   |   |   |   |   |   |   |   |   |   |   |   |   |   |   |   |   |   |   |   |   |   |   |   |   |   |   |   |   |   |   |   |   |   |   |   |   |   |   |   |   |   |   |   |   |--- class: 1
|   |   |   |   |   |   |   |   |   |   |   |   |   |   |   |   |   |   |   |   |   |   |   |   |   |   |   |   |   |   |   |   |   |   |   |   |   |   |   |   |   |   |   |   |   |   |   |   |   |   |   |   |   |   |   |   |   |   |   |   |   |   |--- 派遣会社_SUT ZAI CO.,LTD >  0.500
|   |   |   |   |   |   |   |   |   |   |   |   |   |   |   |   |   |   |   |   |   |   |   |   |   |   |   |   |   |   |   |   |   |   |   |   |   |   |   |   |   |   |   |   |   |   |   |   |   |   |   |   |   |   |   |   |   |   |   |   |   |   |   |--- 組合_ウエストワード協同組合 <= 0.500
|   |   |   |   |   |   |   |   |   |   |   |   |   |   |   |   |   |   |   |   |   |   |   |   |   |   |   |   |   |   |   |   |   |   |   |   |   |   |   |   |   |   |   |   |   |   |   |   |   |   |   |   |   |   |   |   |   |   |   |   |   |   |   |   |--- 入国時年齢 <= 25.000
|   |   |   |   |   |   |   |   |   |   |   |   |   |   |   |   |   |   |   |   |   |   |   |   |   |   |   |   |   |   |   |   |   |   |   |   |   |   |   |   |   |   |   |   |   |   |   |   |   |   |   |   |   |   |   |   |   |   |   |   |   |   |   |   |   |--- class: 0
|   |   |   |   |   |   |   |   |   |   |   |   |   |   |   |   |   |   |   |   |   |   |   |   |   |   |   |   |   |   |   |   |   |   |   |   |   |   |   |   |   |   |   |   |   |   |   |   |   |   |   |   |   |   |   |   |   |   |   |   |   |   |   |   |--- 入国時年齢 >  25.000
|   |   |   |   |   |   |   |   |   |   |   |   |   |   |   |   |   |   |   |   |   |   |   |   |   |   |   |   |   |   |   |   |   |   |   |   |   |   |   |   |   |   |   |   |   |   |   |   |   |   |   |   |   |   |   |   |   |   |   |   |   |   |   |   |   |--- class: 1
|   |   |   |   |   |   |   |   |   |   |   |   |   |   |   |   |   |   |   |   |   |   |   |   |   |   |   |   |   |   |   |   |   |   |   |   |   |   |   |   |   |   |   |   |   |   |   |   |   |   |   |   |   |   |   |   |   |   |   |   |   |   |   |--- 組合_ウエストワード協同組合 >  0.500
|   |   |   |   |   |   |   |   |   |   |   |   |   |   |   |   |   |   |   |   |   |   |   |   |   |   |   |   |   |   |   |   |   |   |   |   |   |   |   |   |   |   |   |   |   |   |   |   |   |   |   |   |   |   |   |   |   |   |   |   |   |   |   |   |--- class: 0
|   |   |   |   |   |   |   |   |   |   |   |   |   |   |   |   |   |   |   |   |   |   |   |   |   |   |   |   |   |   |   |   |   |   |   |   |   |   |   |   |   |   |   |   |   |   |   |   |   |   |   |   |   |   |   |   |   |   |   |   |--- 職種_とび >  0.500
|   |   |   |   |   |   |   |   |   |   |   |   |   |   |   |   |   |   |   |   |   |   |   |   |   |   |   |   |   |   |   |   |   |   |   |   |   |   |   |   |   |   |   |   |   |   |   |   |   |   |   |   |   |   |   |   |   |   |   |   |   |--- 所在地(実習先)(都道府県)_兵庫県 <= 0.500
|   |   |   |   |   |   |   |   |   |   |   |   |   |   |   |   |   |   |   |   |   |   |   |   |   |   |   |   |   |   |   |   |   |   |   |   |   |   |   |   |   |   |   |   |   |   |   |   |   |   |   |   |   |   |   |   |   |   |   |   |   |   |--- 所在地(実習先)(都道府県)_鹿児島県 <= 0.500
|   |   |   |   |   |   |   |   |   |   |   |   |   |   |   |   |   |   |   |   |   |   |   |   |   |   |   |   |   |   |   |   |   |   |   |   |   |   |   |   |   |   |   |   |   |   |   |   |   |   |   |   |   |   |   |   |   |   |   |   |   |   |   |--- 所在地(実習先)(都道府県)_岡山県 <= 0.500
|   |   |   |   |   |   |   |   |   |   |   |   |   |   |   |   |   |   |   |   |   |   |   |   |   |   |   |   |   |   |   |   |   |   |   |   |   |   |   |   |   |   |   |   |   |   |   |   |   |   |   |   |   |   |   |   |   |   |   |   |   |   |   |   |--- 所在地(実習先)(都道府県)_大阪府 <= 0.500
|   |   |   |   |   |   |   |   |   |   |   |   |   |   |   |   |   |   |   |   |   |   |   |   |   |   |   |   |   |   |   |   |   |   |   |   |   |   |   |   |   |   |   |   |   |   |   |   |   |   |   |   |   |   |   |   |   |   |   |   |   |   |   |   |   |--- class: 1
|   |   |   |   |   |   |   |   |   |   |   |   |   |   |   |   |   |   |   |   |   |   |   |   |   |   |   |   |   |   |   |   |   |   |   |   |   |   |   |   |   |   |   |   |   |   |   |   |   |   |   |   |   |   |   |   |   |   |   |   |   |   |   |   |--- 所在地(実習先)(都道府県)_大阪府 >  0.500
|   |   |   |   |   |   |   |   |   |   |   |   |   |   |   |   |   |   |   |   |   |   |   |   |   |   |   |   |   |   |   |   |   |   |   |   |   |   |   |   |   |   |   |   |   |   |   |   |   |   |   |   |   |   |   |   |   |   |   |   |   |   |   |   |   |--- 入国時年齢 <= 25.500
|   |   |   |   |   |   |   |   |   |   |   |   |   |   |   |   |   |   |   |   |   |   |   |   |   |   |   |   |   |   |   |   |   |   |   |   |   |   |   |   |   |   |   |   |   |   |   |   |   |   |   |   |   |   |   |   |   |   |   |   |   |   |   |   |   |   |--- 入国時年齢 <= 23.500
|   |   |   |   |   |   |   |   |   |   |   |   |   |   |   |   |   |   |   |   |   |   |   |   |   |   |   |   |   |   |   |   |   |   |   |   |   |   |   |   |   |   |   |   |   |   |   |   |   |   |   |   |   |   |   |   |   |   |   |   |   |   |   |   |   |   |   |--- class: 1
|   |   |   |   |   |   |   |   |   |   |   |   |   |   |   |   |   |   |   |   |   |   |   |   |   |   |   |   |   |   |   |   |   |   |   |   |   |   |   |   |   |   |   |   |   |   |   |   |   |   |   |   |   |   |   |   |   |   |   |   |   |   |   |   |   |   |--- 入国時年齢 >  23.500
|   |   |   |   |   |   |   |   |   |   |   |   |   |   |   |   |   |   |   |   |   |   |   |   |   |   |   |   |   |   |   |   |   |   |   |   |   |   |   |   |   |   |   |   |   |   |   |   |   |   |   |   |   |   |   |   |   |   |   |   |   |   |   |   |   |   |   |--- class: 0
|   |   |   |   |   |   |   |   |   |   |   |   |   |   |   |   |   |   |   |   |   |   |   |   |   |   |   |   |   |   |   |   |   |   |   |   |   |   |   |   |   |   |   |   |   |   |   |   |   |   |   |   |   |   |   |   |   |   |   |   |   |   |   |   |   |--- 入国時年齢 >  25.500
|   |   |   |   |   |   |   |   |   |   |   |   |   |   |   |   |   |   |   |   |   |   |   |   |   |   |   |   |   |   |   |   |   |   |   |   |   |   |   |   |   |   |   |   |   |   |   |   |   |   |   |   |   |   |   |   |   |   |   |   |   |   |   |   |   |   |--- class: 1
|   |   |   |   |   |   |   |   |   |   |   |   |   |   |   |   |   |   |   |   |   |   |   |   |   |   |   |   |   |   |   |   |   |   |   |   |   |   |   |   |   |   |   |   |   |   |   |   |   |   |   |   |   |   |   |   |   |   |   |   |   |   |   |--- 所在地(実習先)(都道府県)_岡山県 >  0.500
|   |   |   |   |   |   |   |   |   |   |   |   |   |   |   |   |   |   |   |   |   |   |   |   |   |   |   |   |   |   |   |   |   |   |   |   |   |   |   |   |   |   |   |   |   |   |   |   |   |   |   |   |   |   |   |   |   |   |   |   |   |   |   |   |--- 入国時年齢 <= 25.500
|   |   |   |   |   |   |   |   |   |   |   |   |   |   |   |   |   |   |   |   |   |   |   |   |   |   |   |   |   |   |   |   |   |   |   |   |   |   |   |   |   |   |   |   |   |   |   |   |   |   |   |   |   |   |   |   |   |   |   |   |   |   |   |   |   |--- class: 0
|   |   |   |   |   |   |   |   |   |   |   |   |   |   |   |   |   |   |   |   |   |   |   |   |   |   |   |   |   |   |   |   |   |   |   |   |   |   |   |   |   |   |   |   |   |   |   |   |   |   |   |   |   |   |   |   |   |   |   |   |   |   |   |   |--- 入国時年齢 >  25.500
|   |   |   |   |   |   |   |   |   |   |   |   |   |   |   |   |   |   |   |   |   |   |   |   |   |   |   |   |   |   |   |   |   |   |   |   |   |   |   |   |   |   |   |   |   |   |   |   |   |   |   |   |   |   |   |   |   |   |   |   |   |   |   |   |   |--- class: 1
|   |   |   |   |   |   |   |   |   |   |   |   |   |   |   |   |   |   |   |   |   |   |   |   |   |   |   |   |   |   |   |   |   |   |   |   |   |   |   |   |   |   |   |   |   |   |   |   |   |   |   |   |   |   |   |   |   |   |   |   |   |   |--- 所在地(実習先)(都道府県)_鹿児島県 >  0.500
|   |   |   |   |   |   |   |   |   |   |   |   |   |   |   |   |   |   |   |   |   |   |   |   |   |   |   |   |   |   |   |   |   |   |   |   |   |   |   |   |   |   |   |   |   |   |   |   |   |   |   |   |   |   |   |   |   |   |   |   |   |   |   |--- 入国時年齢 <= 24.500
|   |   |   |   |   |   |   |   |   |   |   |   |   |   |   |   |   |   |   |   |   |   |   |   |   |   |   |   |   |   |   |   |   |   |   |   |   |   |   |   |   |   |   |   |   |   |   |   |   |   |   |   |   |   |   |   |   |   |   |   |   |   |   |   |--- 所在地(実習先)(市区町村)_鹿児島市 <= 0.500
|   |   |   |   |   |   |   |   |   |   |   |   |   |   |   |   |   |   |   |   |   |   |   |   |   |   |   |   |   |   |   |   |   |   |   |   |   |   |   |   |   |   |   |   |   |   |   |   |   |   |   |   |   |   |   |   |   |   |   |   |   |   |   |   |   |--- class: 1
|   |   |   |   |   |   |   |   |   |   |   |   |   |   |   |   |   |   |   |   |   |   |   |   |   |   |   |   |   |   |   |   |   |   |   |   |   |   |   |   |   |   |   |   |   |   |   |   |   |   |   |   |   |   |   |   |   |   |   |   |   |   |   |   |--- 所在地(実習先)(市区町村)_鹿児島市 >  0.500
|   |   |   |   |   |   |   |   |   |   |   |   |   |   |   |   |   |   |   |   |   |   |   |   |   |   |   |   |   |   |   |   |   |   |   |   |   |   |   |   |   |   |   |   |   |   |   |   |   |   |   |   |   |   |   |   |   |   |   |   |   |   |   |   |   |--- 入国時年齢 <= 20.500
|   |   |   |   |   |   |   |   |   |   |   |   |   |   |   |   |   |   |   |   |   |   |   |   |   |   |   |   |   |   |   |   |   |   |   |   |   |   |   |   |   |   |   |   |   |   |   |   |   |   |   |   |   |   |   |   |   |   |   |   |   |   |   |   |   |   |--- class: 1
|   |   |   |   |   |   |   |   |   |   |   |   |   |   |   |   |   |   |   |   |   |   |   |   |   |   |   |   |   |   |   |   |   |   |   |   |   |   |   |   |   |   |   |   |   |   |   |   |   |   |   |   |   |   |   |   |   |   |   |   |   |   |   |   |   |--- 入国時年齢 >  20.500
|   |   |   |   |   |   |   |   |   |   |   |   |   |   |   |   |   |   |   |   |   |   |   |   |   |   |   |   |   |   |   |   |   |   |   |   |   |   |   |   |   |   |   |   |   |   |   |   |   |   |   |   |   |   |   |   |   |   |   |   |   |   |   |   |   |   |--- class: 0
|   |   |   |   |   |   |   |   |   |   |   |   |   |   |   |   |   |   |   |   |   |   |   |   |   |   |   |   |   |   |   |   |   |   |   |   |   |   |   |   |   |   |   |   |   |   |   |   |   |   |   |   |   |   |   |   |   |   |   |   |   |   |   |--- 入国時年齢 >  24.500
|   |   |   |   |   |   |   |   |   |   |   |   |   |   |   |   |   |   |   |   |   |   |   |   |   |   |   |   |   |   |   |   |   |   |   |   |   |   |   |   |   |   |   |   |   |   |   |   |   |   |   |   |   |   |   |   |   |   |   |   |   |   |   |   |--- class: 0
|   |   |   |   |   |   |   |   |   |   |   |   |   |   |   |   |   |   |   |   |   |   |   |   |   |   |   |   |   |   |   |   |   |   |   |   |   |   |   |   |   |   |   |   |   |   |   |   |   |   |   |   |   |   |   |   |   |   |   |   |   |--- 所在地(実習先)(都道府県)_兵庫県 >  0.500
|   |   |   |   |   |   |   |   |   |   |   |   |   |   |   |   |   |   |   |   |   |   |   |   |   |   |   |   |   |   |   |   |   |   |   |   |   |   |   |   |   |   |   |   |   |   |   |   |   |   |   |   |   |   |   |   |   |   |   |   |   |   |--- 入国時年齢 <= 21.500
|   |   |   |   |   |   |   |   |   |   |   |   |   |   |   |   |   |   |   |   |   |   |   |   |   |   |   |   |   |   |   |   |   |   |   |   |   |   |   |   |   |   |   |   |   |   |   |   |   |   |   |   |   |   |   |   |   |   |   |   |   |   |   |--- class: 0
|   |   |   |   |   |   |   |   |   |   |   |   |   |   |   |   |   |   |   |   |   |   |   |   |   |   |   |   |   |   |   |   |   |   |   |   |   |   |   |   |   |   |   |   |   |   |   |   |   |   |   |   |   |   |   |   |   |   |   |   |   |   |--- 入国時年齢 >  21.500
|   |   |   |   |   |   |   |   |   |   |   |   |   |   |   |   |   |   |   |   |   |   |   |   |   |   |   |   |   |   |   |   |   |   |   |   |   |   |   |   |   |   |   |   |   |   |   |   |   |   |   |   |   |   |   |   |   |   |   |   |   |   |   |--- class: 0
|   |   |   |   |   |   |   |   |   |   |   |   |   |   |   |   |   |   |   |   |   |   |   |   |   |   |   |   |   |   |   |   |   |   |   |   |   |   |   |   |   |   |   |   |   |   |   |   |   |   |   |   |   |   |   |   |   |   |   |--- 組合_アシスト国際事業協同組合 >  0.500
|   |   |   |   |   |   |   |   |   |   |   |   |   |   |   |   |   |   |   |   |   |   |   |   |   |   |   |   |   |   |   |   |   |   |   |   |   |   |   |   |   |   |   |   |   |   |   |   |   |   |   |   |   |   |   |   |   |   |   |   |--- 入国時年齢 <= 20.500
|   |   |   |   |   |   |   |   |   |   |   |   |   |   |   |   |   |   |   |   |   |   |   |   |   |   |   |   |   |   |   |   |   |   |   |   |   |   |   |   |   |   |   |   |   |   |   |   |   |   |   |   |   |   |   |   |   |   |   |   |   |--- class: 0
|   |   |   |   |   |   |   |   |   |   |   |   |   |   |   |   |   |   |   |   |   |   |   |   |   |   |   |   |   |   |   |   |   |   |   |   |   |   |   |   |   |   |   |   |   |   |   |   |   |   |   |   |   |   |   |   |   |   |   |   |--- 入国時年齢 >  20.500
|   |   |   |   |   |   |   |   |   |   |   |   |   |   |   |   |   |   |   |   |   |   |   |   |   |   |   |   |   |   |   |   |   |   |   |   |   |   |   |   |   |   |   |   |   |   |   |   |   |   |   |   |   |   |   |   |   |   |   |   |   |--- 入国時年齢 <= 22.500
|   |   |   |   |   |   |   |   |   |   |   |   |   |   |   |   |   |   |   |   |   |   |   |   |   |   |   |   |   |   |   |   |   |   |   |   |   |   |   |   |   |   |   |   |   |   |   |   |   |   |   |   |   |   |   |   |   |   |   |   |   |   |--- class: 1
|   |   |   |   |   |   |   |   |   |   |   |   |   |   |   |   |   |   |   |   |   |   |   |   |   |   |   |   |   |   |   |   |   |   |   |   |   |   |   |   |   |   |   |   |   |   |   |   |   |   |   |   |   |   |   |   |   |   |   |   |   |--- 入国時年齢 >  22.500
|   |   |   |   |   |   |   |   |   |   |   |   |   |   |   |   |   |   |   |   |   |   |   |   |   |   |   |   |   |   |   |   |   |   |   |   |   |   |   |   |   |   |   |   |   |   |   |   |   |   |   |   |   |   |   |   |   |   |   |   |   |   |--- 入国時年齢 <= 27.000
|   |   |   |   |   |   |   |   |   |   |   |   |   |   |   |   |   |   |   |   |   |   |   |   |   |   |   |   |   |   |   |   |   |   |   |   |   |   |   |   |   |   |   |   |   |   |   |   |   |   |   |   |   |   |   |   |   |   |   |   |   |   |   |--- class: 0
|   |   |   |   |   |   |   |   |   |   |   |   |   |   |   |   |   |   |   |   |   |   |   |   |   |   |   |   |   |   |   |   |   |   |   |   |   |   |   |   |   |   |   |   |   |   |   |   |   |   |   |   |   |   |   |   |   |   |   |   |   |   |--- 入国時年齢 >  27.000
|   |   |   |   |   |   |   |   |   |   |   |   |   |   |   |   |   |   |   |   |   |   |   |   |   |   |   |   |   |   |   |   |   |   |   |   |   |   |   |   |   |   |   |   |   |   |   |   |   |   |   |   |   |   |   |   |   |   |   |   |   |   |   |--- class: 1
|   |   |   |   |   |   |   |   |   |   |   |   |   |   |   |   |   |   |   |   |   |   |   |   |   |   |   |   |   |   |   |   |   |   |   |   |   |   |   |   |   |   |   |   |   |   |   |   |   |   |   |   |   |   |   |   |   |   |--- 所在地(実習先)(市区町村)_稲敷郡阿見町 >  0.500
|   |   |   |   |   |   |   |   |   |   |   |   |   |   |   |   |   |   |   |   |   |   |   |   |   |   |   |   |   |   |   |   |   |   |   |   |   |   |   |   |   |   |   |   |   |   |   |   |   |   |   |   |   |   |   |   |   |   |   |--- 入国時年齢 <= 24.000
|   |   |   |   |   |   |   |   |   |   |   |   |   |   |   |   |   |   |   |   |   |   |   |   |   |   |   |   |   |   |   |   |   |   |   |   |   |   |   |   |   |   |   |   |   |   |   |   |   |   |   |   |   |   |   |   |   |   |   |   |--- class: 0
|   |   |   |   |   |   |   |   |   |   |   |   |   |   |   |   |   |   |   |   |   |   |   |   |   |   |   |   |   |   |   |   |   |   |   |   |   |   |   |   |   |   |   |   |   |   |   |   |   |   |   |   |   |   |   |   |   |   |   |--- 入国時年齢 >  24.000
|   |   |   |   |   |   |   |   |   |   |   |   |   |   |   |   |   |   |   |   |   |   |   |   |   |   |   |   |   |   |   |   |   |   |   |   |   |   |   |   |   |   |   |   |   |   |   |   |   |   |   |   |   |   |   |   |   |   |   |   |--- class: 1
|   |   |   |   |   |   |   |   |   |   |   |   |   |   |   |   |   |   |   |   |   |   |   |   |   |   |   |   |   |   |   |   |   |   |   |   |   |   |   |   |   |   |   |   |   |   |   |   |   |   |   |   |   |   |   |   |   |--- 職種_建築板金 >  0.500
|   |   |   |   |   |   |   |   |   |   |   |   |   |   |   |   |   |   |   |   |   |   |   |   |   |   |   |   |   |   |   |   |   |   |   |   |   |   |   |   |   |   |   |   |   |   |   |   |   |   |   |   |   |   |   |   |   |   |--- 入国時年齢 <= 24.500
|   |   |   |   |   |   |   |   |   |   |   |   |   |   |   |   |   |   |   |   |   |   |   |   |   |   |   |   |   |   |   |   |   |   |   |   |   |   |   |   |   |   |   |   |   |   |   |   |   |   |   |   |   |   |   |   |   |   |   |--- class: 1
|   |   |   |   |   |   |   |   |   |   |   |   |   |   |   |   |   |   |   |   |   |   |   |   |   |   |   |   |   |   |   |   |   |   |   |   |   |   |   |   |   |   |   |   |   |   |   |   |   |   |   |   |   |   |   |   |   |   |--- 入国時年齢 >  24.500
|   |   |   |   |   |   |   |   |   |   |   |   |   |   |   |   |   |   |   |   |   |   |   |   |   |   |   |   |   |   |   |   |   |   |   |   |   |   |   |   |   |   |   |   |   |   |   |   |   |   |   |   |   |   |   |   |   |   |   |--- class: 0
|   |   |   |   |   |   |   |   |   |   |   |   |   |   |   |   |   |   |   |   |   |   |   |   |   |   |   |   |   |   |   |   |   |   |   |   |   |   |   |   |   |   |   |   |   |   |   |   |   |   |   |   |   |   |   |   |--- 所在地(実習先)(都道府県)_東京都 >  0.500
|   |   |   |   |   |   |   |   |   |   |   |   |   |   |   |   |   |   |   |   |   |   |   |   |   |   |   |   |   |   |   |   |   |   |   |   |   |   |   |   |   |   |   |   |   |   |   |   |   |   |   |   |   |   |   |   |   |--- 入国時年齢 <= 23.500
|   |   |   |   |   |   |   |   |   |   |   |   |   |   |   |   |   |   |   |   |   |   |   |   |   |   |   |   |   |   |   |   |   |   |   |   |   |   |   |   |   |   |   |   |   |   |   |   |   |   |   |   |   |   |   |   |   |   |--- 学校所属_ヤンゴン学校 <= 0.500
|   |   |   |   |   |   |   |   |   |   |   |   |   |   |   |   |   |   |   |   |   |   |   |   |   |   |   |   |   |   |   |   |   |   |   |   |   |   |   |   |   |   |   |   |   |   |   |   |   |   |   |   |   |   |   |   |   |   |   |--- 入国時年齢 <= 21.500
|   |   |   |   |   |   |   |   |   |   |   |   |   |   |   |   |   |   |   |   |   |   |   |   |   |   |   |   |   |   |   |   |   |   |   |   |   |   |   |   |   |   |   |   |   |   |   |   |   |   |   |   |   |   |   |   |   |   |   |   |--- class: 0
|   |   |   |   |   |   |   |   |   |   |   |   |   |   |   |   |   |   |   |   |   |   |   |   |   |   |   |   |   |   |   |   |   |   |   |   |   |   |   |   |   |   |   |   |   |   |   |   |   |   |   |   |   |   |   |   |   |   |   |--- 入国時年齢 >  21.500
|   |   |   |   |   |   |   |   |   |   |   |   |   |   |   |   |   |   |   |   |   |   |   |   |   |   |   |   |   |   |   |   |   |   |   |   |   |   |   |   |   |   |   |   |   |   |   |   |   |   |   |   |   |   |   |   |   |   |   |   |--- class: 1
|   |   |   |   |   |   |   |   |   |   |   |   |   |   |   |   |   |   |   |   |   |   |   |   |   |   |   |   |   |   |   |   |   |   |   |   |   |   |   |   |   |   |   |   |   |   |   |   |   |   |   |   |   |   |   |   |   |   |--- 学校所属_ヤンゴン学校 >  0.500
|   |   |   |   |   |   |   |   |   |   |   |   |   |   |   |   |   |   |   |   |   |   |   |   |   |   |   |   |   |   |   |   |   |   |   |   |   |   |   |   |   |   |   |   |   |   |   |   |   |   |   |   |   |   |   |   |   |   |   |--- class: 1
|   |   |   |   |   |   |   |   |   |   |   |   |   |   |   |   |   |   |   |   |   |   |   |   |   |   |   |   |   |   |   |   |   |   |   |   |   |   |   |   |   |   |   |   |   |   |   |   |   |   |   |   |   |   |   |   |   |--- 入国時年齢 >  23.500
|   |   |   |   |   |   |   |   |   |   |   |   |   |   |   |   |   |   |   |   |   |   |   |   |   |   |   |   |   |   |   |   |   |   |   |   |   |   |   |   |   |   |   |   |   |   |   |   |   |   |   |   |   |   |   |   |   |   |--- class: 0
|   |   |   |   |   |   |   |   |   |   |   |   |   |   |   |   |   |   |   |   |   |   |   |   |   |   |   |   |   |   |   |   |   |   |   |   |   |   |   |   |   |   |   |   |   |   |   |   |   |   |   |   |   |   |   |--- 職種_防水施工 >  0.500
|   |   |   |   |   |   |   |   |   |   |   |   |   |   |   |   |   |   |   |   |   |   |   |   |   |   |   |   |   |   |   |   |   |   |   |   |   |   |   |   |   |   |   |   |   |   |   |   |   |   |   |   |   |   |   |   |--- 入国時年齢 <= 25.000
|   |   |   |   |   |   |   |   |   |   |   |   |   |   |   |   |   |   |   |   |   |   |   |   |   |   |   |   |   |   |   |   |   |   |   |   |   |   |   |   |   |   |   |   |   |   |   |   |   |   |   |   |   |   |   |   |   |--- class: 0
|   |   |   |   |   |   |   |   |   |   |   |   |   |   |   |   |   |   |   |   |   |   |   |   |   |   |   |   |   |   |   |   |   |   |   |   |   |   |   |   |   |   |   |   |   |   |   |   |   |   |   |   |   |   |   |   |--- 入国時年齢 >  25.000
|   |   |   |   |   |   |   |   |   |   |   |   |   |   |   |   |   |   |   |   |   |   |   |   |   |   |   |   |   |   |   |   |   |   |   |   |   |   |   |   |   |   |   |   |   |   |   |   |   |   |   |   |   |   |   |   |   |--- 所在地(実習先)(都道府県)_大阪府 <= 0.500
|   |   |   |   |   |   |   |   |   |   |   |   |   |   |   |   |   |   |   |   |   |   |   |   |   |   |   |   |   |   |   |   |   |   |   |   |   |   |   |   |   |   |   |   |   |   |   |   |   |   |   |   |   |   |   |   |   |   |--- class: 1
|   |   |   |   |   |   |   |   |   |   |   |   |   |   |   |   |   |   |   |   |   |   |   |   |   |   |   |   |   |   |   |   |   |   |   |   |   |   |   |   |   |   |   |   |   |   |   |   |   |   |   |   |   |   |   |   |   |--- 所在地(実習先)(都道府県)_大阪府 >  0.500
|   |   |   |   |   |   |   |   |   |   |   |   |   |   |   |   |   |   |   |   |   |   |   |   |   |   |   |   |   |   |   |   |   |   |   |   |   |   |   |   |   |   |   |   |   |   |   |   |   |   |   |   |   |   |   |   |   |   |--- class: 0
|   |   |   |   |   |   |   |   |   |   |   |   |   |   |   |   |   |   |   |   |   |   |   |   |   |   |   |   |   |   |   |   |   |   |   |   |   |   |   |   |   |   |   |   |   |   |   |   |   |   |   |   |   |   |--- 所在地(実習先)(市区町村)_旭川市 >  0.500
|   |   |   |   |   |   |   |   |   |   |   |   |   |   |   |   |   |   |   |   |   |   |   |   |   |   |   |   |   |   |   |   |   |   |   |   |   |   |   |   |   |   |   |   |   |   |   |   |   |   |   |   |   |   |   |--- 学校所属_CB日本語学校 <= 0.500
|   |   |   |   |   |   |   |   |   |   |   |   |   |   |   |   |   |   |   |   |   |   |   |   |   |   |   |   |   |   |   |   |   |   |   |   |   |   |   |   |   |   |   |   |   |   |   |   |   |   |   |   |   |   |   |   |--- 入国時年齢 <= 25.000
|   |   |   |   |   |   |   |   |   |   |   |   |   |   |   |   |   |   |   |   |   |   |   |   |   |   |   |   |   |   |   |   |   |   |   |   |   |   |   |   |   |   |   |   |   |   |   |   |   |   |   |   |   |   |   |   |   |--- 学校所属_ヤンゴン学校 <= 0.500
|   |   |   |   |   |   |   |   |   |   |   |   |   |   |   |   |   |   |   |   |   |   |   |   |   |   |   |   |   |   |   |   |   |   |   |   |   |   |   |   |   |   |   |   |   |   |   |   |   |   |   |   |   |   |   |   |   |   |--- class: 1
|   |   |   |   |   |   |   |   |   |   |   |   |   |   |   |   |   |   |   |   |   |   |   |   |   |   |   |   |   |   |   |   |   |   |   |   |   |   |   |   |   |   |   |   |   |   |   |   |   |   |   |   |   |   |   |   |   |--- 学校所属_ヤンゴン学校 >  0.500
|   |   |   |   |   |   |   |   |   |   |   |   |   |   |   |   |   |   |   |   |   |   |   |   |   |   |   |   |   |   |   |   |   |   |   |   |   |   |   |   |   |   |   |   |   |   |   |   |   |   |   |   |   |   |   |   |   |   |--- 職種_建設機械施工 <= 0.500
|   |   |   |   |   |   |   |   |   |   |   |   |   |   |   |   |   |   |   |   |   |   |   |   |   |   |   |   |   |   |   |   |   |   |   |   |   |   |   |   |   |   |   |   |   |   |   |   |   |   |   |   |   |   |   |   |   |   |   |--- class: 0
|   |   |   |   |   |   |   |   |   |   |   |   |   |   |   |   |   |   |   |   |   |   |   |   |   |   |   |   |   |   |   |   |   |   |   |   |   |   |   |   |   |   |   |   |   |   |   |   |   |   |   |   |   |   |   |   |   |   |--- 職種_建設機械施工 >  0.500
|   |   |   |   |   |   |   |   |   |   |   |   |   |   |   |   |   |   |   |   |   |   |   |   |   |   |   |   |   |   |   |   |   |   |   |   |   |   |   |   |   |   |   |   |   |   |   |   |   |   |   |   |   |   |   |   |   |   |   |--- 派遣会社_SUT ZAI CO.,LTD <= 0.500
|   |   |   |   |   |   |   |   |   |   |   |   |   |   |   |   |   |   |   |   |   |   |   |   |   |   |   |   |   |   |   |   |   |   |   |   |   |   |   |   |   |   |   |   |   |   |   |   |   |   |   |   |   |   |   |   |   |   |   |   |--- 入国時年齢 <= 22.000
|   |   |   |   |   |   |   |   |   |   |   |   |   |   |   |   |   |   |   |   |   |   |   |   |   |   |   |   |   |   |   |   |   |   |   |   |   |   |   |   |   |   |   |   |   |   |   |   |   |   |   |   |   |   |   |   |   |   |   |   |   |--- class: 0
|   |   |   |   |   |   |   |   |   |   |   |   |   |   |   |   |   |   |   |   |   |   |   |   |   |   |   |   |   |   |   |   |   |   |   |   |   |   |   |   |   |   |   |   |   |   |   |   |   |   |   |   |   |   |   |   |   |   |   |   |--- 入国時年齢 >  22.000
|   |   |   |   |   |   |   |   |   |   |   |   |   |   |   |   |   |   |   |   |   |   |   |   |   |   |   |   |   |   |   |   |   |   |   |   |   |   |   |   |   |   |   |   |   |   |   |   |   |   |   |   |   |   |   |   |   |   |   |   |   |--- class: 1
|   |   |   |   |   |   |   |   |   |   |   |   |   |   |   |   |   |   |   |   |   |   |   |   |   |   |   |   |   |   |   |   |   |   |   |   |   |   |   |   |   |   |   |   |   |   |   |   |   |   |   |   |   |   |   |   |   |   |   |--- 派遣会社_SUT ZAI CO.,LTD >  0.500
|   |   |   |   |   |   |   |   |   |   |   |   |   |   |   |   |   |   |   |   |   |   |   |   |   |   |   |   |   |   |   |   |   |   |   |   |   |   |   |   |   |   |   |   |   |   |   |   |   |   |   |   |   |   |   |   |   |   |   |   |--- 入国時年齢 <= 23.000
|   |   |   |   |   |   |   |   |   |   |   |   |   |   |   |   |   |   |   |   |   |   |   |   |   |   |   |   |   |   |   |   |   |   |   |   |   |   |   |   |   |   |   |   |   |   |   |   |   |   |   |   |   |   |   |   |   |   |   |   |   |--- 入国時年齢 <= 21.000
|   |   |   |   |   |   |   |   |   |   |   |   |   |   |   |   |   |   |   |   |   |   |   |   |   |   |   |   |   |   |   |   |   |   |   |   |   |   |   |   |   |   |   |   |   |   |   |   |   |   |   |   |   |   |   |   |   |   |   |   |   |   |--- class: 1
|   |   |   |   |   |   |   |   |   |   |   |   |   |   |   |   |   |   |   |   |   |   |   |   |   |   |   |   |   |   |   |   |   |   |   |   |   |   |   |   |   |   |   |   |   |   |   |   |   |   |   |   |   |   |   |   |   |   |   |   |   |--- 入国時年齢 >  21.000
|   |   |   |   |   |   |   |   |   |   |   |   |   |   |   |   |   |   |   |   |   |   |   |   |   |   |   |   |   |   |   |   |   |   |   |   |   |   |   |   |   |   |   |   |   |   |   |   |   |   |   |   |   |   |   |   |   |   |   |   |   |   |--- class: 1
|   |   |   |   |   |   |   |   |   |   |   |   |   |   |   |   |   |   |   |   |   |   |   |   |   |   |   |   |   |   |   |   |   |   |   |   |   |   |   |   |   |   |   |   |   |   |   |   |   |   |   |   |   |   |   |   |   |   |   |   |--- 入国時年齢 >  23.000
|   |   |   |   |   |   |   |   |   |   |   |   |   |   |   |   |   |   |   |   |   |   |   |   |   |   |   |   |   |   |   |   |   |   |   |   |   |   |   |   |   |   |   |   |   |   |   |   |   |   |   |   |   |   |   |   |   |   |   |   |   |--- class: 0
|   |   |   |   |   |   |   |   |   |   |   |   |   |   |   |   |   |   |   |   |   |   |   |   |   |   |   |   |   |   |   |   |   |   |   |   |   |   |   |   |   |   |   |   |   |   |   |   |   |   |   |   |   |   |   |   |--- 入国時年齢 >  25.000
|   |   |   |   |   |   |   |   |   |   |   |   |   |   |   |   |   |   |   |   |   |   |   |   |   |   |   |   |   |   |   |   |   |   |   |   |   |   |   |   |   |   |   |   |   |   |   |   |   |   |   |   |   |   |   |   |   |--- class: 0
|   |   |   |   |   |   |   |   |   |   |   |   |   |   |   |   |   |   |   |   |   |   |   |   |   |   |   |   |   |   |   |   |   |   |   |   |   |   |   |   |   |   |   |   |   |   |   |   |   |   |   |   |   |   |   |--- 学校所属_CB日本語学校 >  0.500
|   |   |   |   |   |   |   |   |   |   |   |   |   |   |   |   |   |   |   |   |   |   |   |   |   |   |   |   |   |   |   |   |   |   |   |   |   |   |   |   |   |   |   |   |   |   |   |   |   |   |   |   |   |   |   |   |--- class: 0
|   |   |   |   |   |   |   |   |   |   |   |   |   |   |   |   |   |   |   |   |   |   |   |   |   |   |   |   |   |   |   |   |   |   |   |   |   |   |   |   |   |   |   |   |   |   |   |   |   |   |   |   |--- 所在地(実習先)(市区町村)_枚方市 >  0.500
|   |   |   |   |   |   |   |   |   |   |   |   |   |   |   |   |   |   |   |   |   |   |   |   |   |   |   |   |   |   |   |   |   |   |   |   |   |   |   |   |   |   |   |   |   |   |   |   |   |   |   |   |   |--- class: 0
|   |   |   |   |   |   |   |   |   |   |   |   |   |   |   |   |   |   |   |   |   |   |   |   |   |   |   |   |   |   |   |   |   |   |   |   |   |   |   |   |   |   |   |   |   |   |   |   |   |   |   |--- 所在地(実習先)(市区町村)_印西市 >  0.500
|   |   |   |   |   |   |   |   |   |   |   |   |   |   |   |   |   |   |   |   |   |   |   |   |   |   |   |   |   |   |   |   |   |   |   |   |   |   |   |   |   |   |   |   |   |   |   |   |   |   |   |   |--- class: 0
|   |   |   |   |   |   |   |   |   |   |   |   |   |   |   |   |   |   |   |   |   |   |   |   |   |   |   |   |   |   |   |   |   |   |   |   |   |   |   |   |   |   |   |   |   |   |   |   |   |   |--- 学校所属_MAY日本語学校 >  0.500
|   |   |   |   |   |   |   |   |   |   |   |   |   |   |   |   |   |   |   |   |   |   |   |   |   |   |   |   |   |   |   |   |   |   |   |   |   |   |   |   |   |   |   |   |   |   |   |   |   |   |   |--- class: 0
|   |   |   |   |   |   |   |   |   |   |   |   |   |   |   |   |   |   |   |   |   |   |   |   |   |   |   |   |   |   |   |   |   |   |   |   |   |   |   |   |   |   |   |   |   |   |   |   |   |--- 所在地(実習先)(市区町村)_上川郡美瑛町 >  0.500
|   |   |   |   |   |   |   |   |   |   |   |   |   |   |   |   |   |   |   |   |   |   |   |   |   |   |   |   |   |   |   |   |   |   |   |   |   |   |   |   |   |   |   |   |   |   |   |   |   |   |--- class: 0
|   |   |   |   |   |   |   |   |   |   |   |   |   |   |   |   |   |   |   |   |   |   |   |   |   |   |   |   |   |   |   |   |   |   |   |   |   |   |   |   |   |   |   |   |   |   |   |   |--- 所在地(実習先)(都道府県)_佐賀県 >  0.500
|   |   |   |   |   |   |   |   |   |   |   |   |   |   |   |   |   |   |   |   |   |   |   |   |   |   |   |   |   |   |   |   |   |   |   |   |   |   |   |   |   |   |   |   |   |   |   |   |   |--- class: 0
|   |   |   |   |   |   |   |   |   |   |   |   |   |   |   |   |   |   |   |   |   |   |   |   |   |   |   |   |   |   |   |   |   |   |   |   |   |   |   |   |   |   |   |   |   |   |   |--- 所在地(実習先)(市区町村)_長岡市 >  0.500
|   |   |   |   |   |   |   |   |   |   |   |   |   |   |   |   |   |   |   |   |   |   |   |   |   |   |   |   |   |   |   |   |   |   |   |   |   |   |   |   |   |   |   |   |   |   |   |   |--- class: 0
|   |   |   |   |   |   |   |   |   |   |   |   |   |   |   |   |   |   |   |   |   |   |   |   |   |   |   |   |   |   |   |   |   |   |   |   |   |   |   |   |   |   |   |   |   |   |--- 所在地(実習先)(市区町村)_飯塚市 >  0.500
|   |   |   |   |   |   |   |   |   |   |   |   |   |   |   |   |   |   |   |   |   |   |   |   |   |   |   |   |   |   |   |   |   |   |   |   |   |   |   |   |   |   |   |   |   |   |   |--- class: 0
|   |   |   |   |   |   |   |   |   |   |   |   |   |   |   |   |   |   |   |   |   |   |   |   |   |   |   |   |   |   |   |   |   |   |   |   |   |   |   |   |   |   |   |   |   |--- 所在地(実習先)(市区町村)_名古屋市 >  0.500
|   |   |   |   |   |   |   |   |   |   |   |   |   |   |   |   |   |   |   |   |   |   |   |   |   |   |   |   |   |   |   |   |   |   |   |   |   |   |   |   |   |   |   |   |   |   |--- class: 0
|   |   |   |   |   |   |   |   |   |   |   |   |   |   |   |   |   |   |   |   |   |   |   |   |   |   |   |   |   |   |   |   |   |   |   |   |   |   |   |   |   |   |   |   |--- 所在地(実習先)(市区町村)_茨木市 >  0.500
|   |   |   |   |   |   |   |   |   |   |   |   |   |   |   |   |   |   |   |   |   |   |   |   |   |   |   |   |   |   |   |   |   |   |   |   |   |   |   |   |   |   |   |   |   |--- class: 0
|   |   |   |   |   |   |   |   |   |   |   |   |   |   |   |   |   |   |   |   |   |   |   |   |   |   |   |   |   |   |   |   |   |   |   |   |   |   |   |   |   |   |   |--- 所在地(実習先)(市区町村)_市原市 >  0.500
|   |   |   |   |   |   |   |   |   |   |   |   |   |   |   |   |   |   |   |   |   |   |   |   |   |   |   |   |   |   |   |   |   |   |   |   |   |   |   |   |   |   |   |   |--- class: 0
|   |   |   |   |   |   |   |   |   |   |   |   |   |   |   |   |   |   |   |   |   |   |   |   |   |   |   |   |   |   |   |   |   |   |   |   |   |   |   |   |   |   |--- 所在地(実習先)(市区町村)_綾瀬市 >  0.500
|   |   |   |   |   |   |   |   |   |   |   |   |   |   |   |   |   |   |   |   |   |   |   |   |   |   |   |   |   |   |   |   |   |   |   |   |   |   |   |   |   |   |   |--- class: 0
|   |   |   |   |   |   |   |   |   |   |   |   |   |   |   |   |   |   |   |   |   |   |   |   |   |   |   |   |   |   |   |   |   |   |   |   |   |   |   |   |   |--- 所在地(実習先)(市区町村)_港区 >  0.500
|   |   |   |   |   |   |   |   |   |   |   |   |   |   |   |   |   |   |   |   |   |   |   |   |   |   |   |   |   |   |   |   |   |   |   |   |   |   |   |   |   |   |--- class: 0
|   |   |   |   |   |   |   |   |   |   |   |   |   |   |   |   |   |   |   |   |   |   |   |   |   |   |   |   |   |   |   |   |   |   |   |   |   |   |   |   |--- 所在地(実習先)(市区町村)_鎌ケ谷市 >  0.500
|   |   |   |   |   |   |   |   |   |   |   |   |   |   |   |   |   |   |   |   |   |   |   |   |   |   |   |   |   |   |   |   |   |   |   |   |   |   |   |   |   |--- class: 0
|   |   |   |   |   |   |   |   |   |   |   |   |   |   |   |   |   |   |   |   |   |   |   |   |   |   |   |   |   |   |   |   |   |   |   |   |   |   |   |--- 所在地(実習先)(市区町村)_姫路市 >  0.500
|   |   |   |   |   |   |   |   |   |   |   |   |   |   |   |   |   |   |   |   |   |   |   |   |   |   |   |   |   |   |   |   |   |   |   |   |   |   |   |   |--- class: 0
|   |   |   |   |   |   |   |   |   |   |   |   |   |   |   |   |   |   |   |   |   |   |   |   |   |   |   |   |   |   |   |   |   |   |   |   |   |   |--- 所在地(実習先)(都道府県)_宮城県 >  0.500
|   |   |   |   |   |   |   |   |   |   |   |   |   |   |   |   |   |   |   |   |   |   |   |   |   |   |   |   |   |   |   |   |   |   |   |   |   |   |   |--- class: 0
|   |   |   |   |   |   |   |   |   |   |   |   |   |   |   |   |   |   |   |   |   |   |   |   |   |   |   |   |   |   |   |   |   |   |   |   |   |--- 職種_建築大工 >  0.500
|   |   |   |   |   |   |   |   |   |   |   |   |   |   |   |   |   |   |   |   |   |   |   |   |   |   |   |   |   |   |   |   |   |   |   |   |   |   |--- 組合_九州産業振興協同組合 <= 0.500
|   |   |   |   |   |   |   |   |   |   |   |   |   |   |   |   |   |   |   |   |   |   |   |   |   |   |   |   |   |   |   |   |   |   |   |   |   |   |   |--- class: 0
|   |   |   |   |   |   |   |   |   |   |   |   |   |   |   |   |   |   |   |   |   |   |   |   |   |   |   |   |   |   |   |   |   |   |   |   |   |   |--- 組合_九州産業振興協同組合 >  0.500
|   |   |   |   |   |   |   |   |   |   |   |   |   |   |   |   |   |   |   |   |   |   |   |   |   |   |   |   |   |   |   |   |   |   |   |   |   |   |   |--- class: 1
|   |   |   |   |   |   |   |   |   |   |   |   |   |   |   |   |   |   |   |   |   |   |   |   |   |   |   |   |   |   |   |   |   |   |   |   |--- 所在地(実習先)(市区町村)_茂原市 >  0.500
|   |   |   |   |   |   |   |   |   |   |   |   |   |   |   |   |   |   |   |   |   |   |   |   |   |   |   |   |   |   |   |   |   |   |   |   |   |--- class: 0
|   |   |   |   |   |   |   |   |   |   |   |   |   |   |   |   |   |   |   |   |   |   |   |   |   |   |   |   |   |   |   |   |   |   |   |--- 所在地(実習先)(市区町村)_東近江市 >  0.500
|   |   |   |   |   |   |   |   |   |   |   |   |   |   |   |   |   |   |   |   |   |   |   |   |   |   |   |   |   |   |   |   |   |   |   |   |--- class: 0
|   |   |   |   |   |   |   |   |   |   |   |   |   |   |   |   |   |   |   |   |   |   |   |   |   |   |   |   |   |   |   |   |   |   |--- 所在地(実習先)(市区町村)_江東区 >  0.500
|   |   |   |   |   |   |   |   |   |   |   |   |   |   |   |   |   |   |   |   |   |   |   |   |   |   |   |   |   |   |   |   |   |   |   |--- class: 0
|   |   |   |   |   |   |   |   |   |   |   |   |   |   |   |   |   |   |   |   |   |   |   |   |   |   |   |   |   |   |   |   |   |--- 所在地(実習先)(市区町村)_行橋市 >  0.500
|   |   |   |   |   |   |   |   |   |   |   |   |   |   |   |   |   |   |   |   |   |   |   |   |   |   |   |   |   |   |   |   |   |   |--- class: 0
|   |   |   |   |   |   |   |   |   |   |   |   |   |   |   |   |   |   |   |   |   |   |   |   |   |   |   |   |   |   |   |   |--- 所在地(実習先)(市区町村)_船橋市 >  0.500
|   |   |   |   |   |   |   |   |   |   |   |   |   |   |   |   |   |   |   |   |   |   |   |   |   |   |   |   |   |   |   |   |   |--- class: 0
|   |   |   |   |   |   |   |   |   |   |   |   |   |   |   |   |   |   |   |   |   |   |   |   |   |   |   |   |   |   |--- 組合_アジアアグリ協同組合 >  0.500
|   |   |   |   |   |   |   |   |   |   |   |   |   |   |   |   |   |   |   |   |   |   |   |   |   |   |   |   |   |   |   |--- class: 0
|   |   |   |   |   |   |   |   |   |   |   |   |   |   |   |   |   |   |   |   |   |   |   |   |   |   |   |   |   |--- 所在地(実習先)(市区町村)_立川市 >  0.500
|   |   |   |   |   |   |   |   |   |   |   |   |   |   |   |   |   |   |   |   |   |   |   |   |   |   |   |   |   |   |--- class: 0
|   |   |   |   |   |   |   |   |   |   |   |   |   |   |   |   |   |   |   |   |   |   |   |   |   |   |   |   |--- 所在地(実習先)(都道府県)_青森県 >  0.500
|   |   |   |   |   |   |   |   |   |   |   |   |   |   |   |   |   |   |   |   |   |   |   |   |   |   |   |   |   |--- class: 0
|   |   |   |   |   |   |   |   |   |   |   |   |   |   |   |   |   |   |   |   |   |   |   |   |   |   |   |--- 所在地(実習先)(市区町村)_夕張郡栗山町 >  0.500
|   |   |   |   |   |   |   |   |   |   |   |   |   |   |   |   |   |   |   |   |   |   |   |   |   |   |   |   |--- class: 0
|   |   |   |   |   |   |   |   |   |   |   |   |   |   |   |   |   |   |   |   |   |   |   |   |   |   |--- 所在地(実習先)(市区町村)_明石市 >  0.500
|   |   |   |   |   |   |   |   |   |   |   |   |   |   |   |   |   |   |   |   |   |   |   |   |   |   |   |--- class: 0
|   |   |   |   |   |   |   |   |   |   |   |   |   |   |   |   |   |   |   |   |   |   |   |   |   |--- 所在地(実習先)(市区町村)_富士吉田市 >  0.500
|   |   |   |   |   |   |   |   |   |   |   |   |   |   |   |   |   |   |   |   |   |   |   |   |   |   |--- class: 0
|   |   |   |   |   |   |   |   |   |   |   |   |   |   |   |   |   |   |   |   |   |   |   |   |--- 所在地(実習先)(都道府県)_山口県 >  0.500
|   |   |   |   |   |   |   |   |   |   |   |   |   |   |   |   |   |   |   |   |   |   |   |   |   |--- class: 0
|   |   |   |   |   |   |   |   |   |   |   |   |   |   |   |   |   |   |   |   |   |   |   |--- 所在地(実習先)(都道府県)_群馬県 >  0.500
|   |   |   |   |   |   |   |   |   |   |   |   |   |   |   |   |   |   |   |   |   |   |   |   |--- class: 0
|   |   |   |   |   |   |   |   |   |   |   |   |   |   |   |   |   |   |   |   |   |   |--- 所在地(実習先)(市区町村)_宮若市 >  0.500
|   |   |   |   |   |   |   |   |   |   |   |   |   |   |   |   |   |   |   |   |   |   |   |--- class: 0
|   |   |   |   |   |   |   |   |   |   |   |   |   |   |   |   |   |   |   |   |   |--- 所在地(実習先)(市区町村)_町田市 >  0.500
|   |   |   |   |   |   |   |   |   |   |   |   |   |   |   |   |   |   |   |   |   |   |--- class: 0
|   |   |   |   |   |   |   |   |   |   |   |   |   |   |   |   |   |   |   |   |--- 所在地(実習先)(市区町村)_大磯町 >  0.500
|   |   |   |   |   |   |   |   |   |   |   |   |   |   |   |   |   |   |   |   |   |--- class: 0
|   |   |   |   |   |   |   |   |   |   |   |   |   |   |   |   |   |   |   |--- 所在地(実習先)(市区町村)_空知郡南富良野町 >  0.500
|   |   |   |   |   |   |   |   |   |   |   |   |   |   |   |   |   |   |   |   |--- class: 0
|   |   |   |   |   |   |   |   |   |   |   |   |   |   |   |   |   |   |--- 所在地(実習先)(市区町村)_新宿区 >  0.500
|   |   |   |   |   |   |   |   |   |   |   |   |   |   |   |   |   |   |   |--- class: 0
|   |   |   |   |   |   |   |   |   |   |   |   |   |   |   |   |   |--- 所在地(実習先)(市区町村)_八千代市 >  0.500
|   |   |   |   |   |   |   |   |   |   |   |   |   |   |   |   |   |   |--- class: 0
|   |   |   |   |   |   |   |   |   |   |   |   |   |   |   |   |--- 所在地(実習先)(市区町村)_横浜市 >  0.500
|   |   |   |   |   |   |   |   |   |   |   |   |   |   |   |   |   |--- class: 0
|   |   |   |   |   |   |   |   |   |   |   |   |   |   |   |--- 所在地(実習先)(市区町村)_千葉市 >  0.500
|   |   |   |   |   |   |   |   |   |   |   |   |   |   |   |   |--- class: 0
|   |   |   |   |   |   |   |   |   |   |   |   |   |   |--- 所在地(実習先)(市区町村)_江戸川区 >  0.500
|   |   |   |   |   |   |   |   |   |   |   |   |   |   |   |--- class: 0
|   |   |   |   |   |   |   |   |   |   |   |   |   |--- 所在地(実習先)(市区町村)_岩見沢市 >  0.500
|   |   |   |   |   |   |   |   |   |   |   |   |   |   |--- class: 0
|   |   |   |   |   |   |   |   |   |   |   |   |--- 所在地(実習先)(市区町村)_京都市 >  0.500
|   |   |   |   |   |   |   |   |   |   |   |   |   |--- class: 0
|   |   |   |   |   |   |   |   |   |   |   |--- 所在地(実習先)(市区町村)_岡山市 >  0.500
|   |   |   |   |   |   |   |   |   |   |   |   |--- class: 0
|   |   |   |   |   |   |   |   |   |   |--- 所在地(実習先)(市区町村)_久留米市 >  0.500
|   |   |   |   |   |   |   |   |   |   |   |--- class: 0
|   |   |   |   |   |   |   |   |   |--- 所在地(実習先)(都道府県)_長野県 >  0.500
|   |   |   |   |   |   |   |   |   |   |--- class: 0
|   |   |   |   |   |   |   |   |--- 所在地(実習先)(市区町村)_那珂川市 >  0.500
|   |   |   |   |   |   |   |   |   |--- class: 0
|   |   |   |   |   |   |   |--- 所在地(実習先)(都道府県)_埼玉県 >  0.500
|   |   |   |   |   |   |   |   |--- class: 0
|   |   |   |   |   |   |--- 学校所属_ネピドー学校 >  0.500
|   |   |   |   |   |   |   |--- 職種_建設機械施工 <= 0.500
|   |   |   |   |   |   |   |   |--- 所在地(実習先)(都道府県)_大阪府 <= 0.500
|   |   |   |   |   |   |   |   |   |--- 所在地(実習先)(市区町村)_旭川市 <= 0.500
|   |   |   |   |   |   |   |   |   |   |--- 職種_防水施工 <= 0.500
|   |   |   |   |   |   |   |   |   |   |   |--- 所在地(実習先)(市区町村)_小松市 <= 0.500
|   |   |   |   |   |   |   |   |   |   |   |   |--- 所在地(実習先)(市区町村)_鴻巣市 <= 0.500
|   |   |   |   |   |   |   |   |   |   |   |   |   |--- 職種_建築板金 <= 0.500
|   |   |   |   |   |   |   |   |   |   |   |   |   |   |--- 職種_鉄筋施工 <= 0.500
|   |   |   |   |   |   |   |   |   |   |   |   |   |   |   |--- 所在地(実習先)(都道府県)_神奈川県 <= 0.500
|   |   |   |   |   |   |   |   |   |   |   |   |   |   |   |   |--- 入国時年齢 <= 27.500
|   |   |   |   |   |   |   |   |   |   |   |   |   |   |   |   |   |--- 入国時年齢 <= 24.500
|   |   |   |   |   |   |   |   |   |   |   |   |   |   |   |   |   |   |--- 職種_型枠施工 <= 0.500
|   |   |   |   |   |   |   |   |   |   |   |   |   |   |   |   |   |   |   |--- class: 1
|   |   |   |   |   |   |   |   |   |   |   |   |   |   |   |   |   |   |--- 職種_型枠施工 >  0.500
|   |   |   |   |   |   |   |   |   |   |   |   |   |   |   |   |   |   |   |--- 入国時年齢 <= 20.500
|   |   |   |   |   |   |   |   |   |   |   |   |   |   |   |   |   |   |   |   |--- class: 1
|   |   |   |   |   |   |   |   |   |   |   |   |   |   |   |   |   |   |   |--- 入国時年齢 >  20.500
|   |   |   |   |   |   |   |   |   |   |   |   |   |   |   |   |   |   |   |   |--- class: 1
|   |   |   |   |   |   |   |   |   |   |   |   |   |   |   |   |   |--- 入国時年齢 >  24.500
|   |   |   |   |   |   |   |   |   |   |   |   |   |   |   |   |   |   |--- class: 0
|   |   |   |   |   |   |   |   |   |   |   |   |   |   |   |   |--- 入国時年齢 >  27.500
|   |   |   |   |   |   |   |   |   |   |   |   |   |   |   |   |   |--- class: 1
|   |   |   |   |   |   |   |   |   |   |   |   |   |   |   |--- 所在地(実習先)(都道府県)_神奈川県 >  0.500
|   |   |   |   |   |   |   |   |   |   |   |   |   |   |   |   |--- class: 0
|   |   |   |   |   |   |   |   |   |   |   |   |   |   |--- 職種_鉄筋施工 >  0.500
|   |   |   |   |   |   |   |   |   |   |   |   |   |   |   |--- class: 0
|   |   |   |   |   |   |   |   |   |   |   |   |   |--- 職種_建築板金 >  0.500
|   |   |   |   |   |   |   |   |   |   |   |   |   |   |--- class: 0
|   |   |   |   |   |   |   |   |   |   |   |   |--- 所在地(実習先)(市区町村)_鴻巣市 >  0.500
|   |   |   |   |   |   |   |   |   |   |   |   |   |--- 入国時年齢 <= 23.000
|   |   |   |   |   |   |   |   |   |   |   |   |   |   |--- class: 0
|   |   |   |   |   |   |   |   |   |   |   |   |   |--- 入国時年齢 >  23.000
|   |   |   |   |   |   |   |   |   |   |   |   |   |   |--- class: 0
|   |   |   |   |   |   |   |   |   |   |   |--- 所在地(実習先)(市区町村)_小松市 >  0.500
|   |   |   |   |   |   |   |   |   |   |   |   |--- 入国時年齢 <= 21.500
|   |   |   |   |   |   |   |   |   |   |   |   |   |--- class: 0
|   |   |   |   |   |   |   |   |   |   |   |   |--- 入国時年齢 >  21.500
|   |   |   |   |   |   |   |   |   |   |   |   |   |--- class: 0
|   |   |   |   |   |   |   |   |   |   |--- 職種_防水施工 >  0.500
|   |   |   |   |   |   |   |   |   |   |   |--- 所在地(実習先)(都道府県)_兵庫県 <= 0.500
|   |   |   |   |   |   |   |   |   |   |   |   |--- class: 0
|   |   |   |   |   |   |   |   |   |   |   |--- 所在地(実習先)(都道府県)_兵庫県 >  0.500
|   |   |   |   |   |   |   |   |   |   |   |   |--- class: 0
|   |   |   |   |   |   |   |   |   |--- 所在地(実習先)(市区町村)_旭川市 >  0.500
|   |   |   |   |   |   |   |   |   |   |--- 職種_とび <= 0.500
|   |   |   |   |   |   |   |   |   |   |   |--- class: 0
|   |   |   |   |   |   |   |   |   |   |--- 職種_とび >  0.500
|   |   |   |   |   |   |   |   |   |   |   |--- class: 0
|   |   |   |   |   |   |   |   |--- 所在地(実習先)(都道府県)_大阪府 >  0.500
